
//<![CDATA[

// a few things don't have var in front of them - they update already existing variables the game needs
lanesSide = 2;
patchesAhead = 8;
patchesBehind = 4;
trainIterations = 10000;

var num_inputs = (lanesSide * 2 + 1) * (patchesAhead + patchesBehind);
var num_actions = 5;
var temporal_window = 3;
var network_size = num_inputs * temporal_window + num_actions * temporal_window + num_inputs;

var layer_defs = [];
layer_defs.push({
    type: 'input',
    out_sx: 1,
    out_sy: 1,
    out_depth: network_size
});
layer_defs.push({
    type: 'fc',
    num_neurons: 16,
    activation: 'relu'
});
layer_defs.push({
    type: 'fc',
    num_neurons: 8,
    activation: 'relu'
});
layer_defs.push({
    type: 'fc',
    num_neurons: 8,
    activation: 'relu'
});
layer_defs.push({
    type: 'regression',
    num_neurons: num_actions
});

var tdtrainer_options = {
    learning_rate: 0.001,
    momentum: 0.0,
    batch_size: 64,
    l2_decay: 0.01
};

var opt = {};
opt.temporal_window = temporal_window;
opt.experience_size = 3000;
opt.start_learn_threshold = 500;
opt.gamma = 0.7;
opt.learning_steps_total = 10000;
opt.learning_steps_burnin = 1000;
opt.epsilon_min = 0.0;
opt.epsilon_test_time = 0.0;
opt.layer_defs = layer_defs;
opt.tdtrainer_options = tdtrainer_options;

brain = new deepqlearn.Brain(num_inputs, num_actions, opt);

learn = function (state, lastReward) {
    brain.backward(lastReward);
    var action = brain.forward(state);

    draw_net();
    draw_stats();

    return action;
}

//]]>
    
/*###########*/
if (brain) {
brain.value_net.fromJSON({"layers":[{"out_depth":255,"out_sx":1,"out_sy":1,"layer_type":"input"},{"out_depth":16,"out_sx":1,"out_sy":1,"layer_type":"fc","num_inputs":255,"l1_decay_mul":0,"l2_decay_mul":1,"filters":[{"sx":1,"sy":1,"depth":255,"w":{"0":-0.0857121282159327,"1":-0.036098266975164155,"2":-0.009619549895745292,"3":-0.03596691016447162,"4":0.03222889868528882,"5":-0.0780490012081032,"6":0.04603770533079417,"7":0.0264171180485689,"8":-0.006142999181284031,"9":0.011675111117560194,"10":0.004976656231169885,"11":0.043831147770553434,"12":0.09076453205058238,"13":0.010201087187946083,"14":0.04418417553984757,"15":0.04398655761274309,"16":-0.00297151487108005,"17":-0.04384474843098572,"18":0.013485793208006957,"19":0.030994373829717946,"20":-0.016240211227956627,"21":0.04931365151549409,"22":-0.02235269367138509,"23":0.08817563422373367,"24":0.017048948596772744,"25":0.0329822601887266,"26":-0.03170251437519503,"27":0.0341403462195701,"28":0.12906526289449938,"29":0.01491156335649919,"30":-0.010308989324641353,"31":-0.0005562652774028813,"32":0.08201388880788747,"33":0.02378520073692361,"34":0.10518521329591965,"35":-0.017266075501133012,"36":0.0009715316517785179,"37":-0.021273195446295613,"38":-0.018158774149263354,"39":-0.04822593103696566,"40":-0.006593106810248244,"41":0.052214234440740644,"42":0.04257693939847714,"43":0.03708390384223394,"44":-0.005819333934333886,"45":-0.054553137983591356,"46":0.1169333681678065,"47":0.05273117646180543,"48":-0.0014568855726103485,"49":0.020788743505602423,"50":-0.14136155162353983,"51":-0.03829207816184265,"52":-0.05558198900501664,"53":-0.05672766504135193,"54":0.013318668072769872,"55":-0.028142691399580613,"56":0.12417515583818033,"57":-0.04501026924969673,"58":-0.014624327935831283,"59":0.11690823186127852,"60":0.03573261133735625,"61":-0.005107310012963307,"62":-0.010903439247342078,"63":0.02751290788456049,"64":0.006340746492702455,"65":0.0031464611307348346,"66":0.011991707694497207,"67":0.043691642691687065,"68":0.05572764479565622,"69":-0.055119995429948505,"70":0.031247459285488475,"71":-0.014458380064644743,"72":-0.032967495030410444,"73":0.12770190651643534,"74":0.039412363271870525,"75":-0.08045958061596073,"76":0.006758751924569092,"77":-0.010982162159258449,"78":0.027473688778782368,"79":0.023967456969580934,"80":-0.06431681077463144,"81":0.07513621668462415,"82":-0.006231395809696652,"83":-0.0048372833746318945,"84":0.03651283403002082,"85":0.007869002188026709,"86":-0.10698226539373275,"87":0.1443567185725546,"88":-0.016384023106715016,"89":-0.13252646095815765,"90":-0.019666680288943052,"91":-0.03136752190257632,"92":0.073832378934835,"93":0.011146619535869795,"94":0.02310813703687646,"95":-0.11422544711324732,"96":-0.049107113329167285,"97":-0.00999098566297561,"98":-0.03230705034223616,"99":0.021851181312186163,"100":-0.0025877672863525883,"101":-0.11215593185084544,"102":-0.0215935633483983,"103":-0.0707736337803764,"104":-0.06321041392882955,"105":0.03323678770604827,"106":0.031008108684203926,"107":-0.009116824867259316,"108":-0.10672582594340763,"109":-0.05159848421450494,"110":-0.007765105038742418,"111":0.07223423115495653,"112":-0.09637168057602745,"113":-0.10582167775472769,"114":-0.03895037953823658,"115":0.07514989818688811,"116":-0.07205377384405846,"117":-0.015030155253644607,"118":0.060072282845898,"119":0.0804834382163981,"120":0.039492635319973705,"121":-0.05815048413748784,"122":-0.011651236663204985,"123":0.008723609973795713,"124":-0.003257688615776884,"125":0.006314949197273843,"126":-0.16134600561289458,"127":-0.11275211267751684,"128":0.029157811953771387,"129":-0.04209772357282775,"130":0.05887329625378734,"131":-0.038711837123329984,"132":-0.02783295536376104,"133":-0.08563002638308938,"134":-0.03220249064785429,"135":0.02533711919709876,"136":-0.011228057119469182,"137":0.09149750096622486,"138":0.03715802457654008,"139":0.07569120067116493,"140":-0.02997667612419914,"141":-0.12126220810750986,"142":0.10683757937091905,"143":0.034319506164760635,"144":0.06277834900878564,"145":-0.06517094998664238,"146":-0.08522220551026453,"147":0.06949261644392805,"148":-0.04602921338463364,"149":-0.0380866640545136,"150":-0.023215179778275707,"151":-0.012160482505199684,"152":0.023635146720592685,"153":0.08353784801883626,"154":-0.02950844366457584,"155":-0.05981549504188063,"156":-0.014872815863153086,"157":-0.007993084251949356,"158":0.030250239422930796,"159":0.09477151152160283,"160":-0.080623357056357,"161":-0.0036277495216181566,"162":0.05746911706093419,"163":0.043455114788367895,"164":-0.027860479275294295,"165":0.07125152714449537,"166":0.0585545559514894,"167":0.010511604158406622,"168":-0.013837140799620362,"169":-0.008842815228448646,"170":-0.02117006481640665,"171":0.07918289827734191,"172":-0.08636371739157324,"173":-0.03541255075565653,"174":0.15351897448074867,"175":0.10661898025173533,"176":-0.09300327900163026,"177":-0.09130351930561148,"178":0.00011608029516636575,"179":-0.025092415266518578,"180":-0.06617881609982834,"181":0.0007475107908344965,"182":0.028925540031527353,"183":-0.02940904590684252,"184":-0.1562188230714439,"185":-0.11454286891771609,"186":-0.04036441290812949,"187":-0.020709974603116667,"188":0.0010384102115918315,"189":0.011290627539484472,"190":-0.1264844054289011,"191":0.014090766262760642,"192":-0.04475294773791618,"193":-0.1433163056819177,"194":-0.074051467395607,"195":-0.016717759993423873,"196":-0.059040994391840025,"197":-0.03600256470989971,"198":-0.04151303565028138,"199":0.04326711643524521,"200":0.0006767390907771904,"201":0.04339703927015478,"202":0.0382928540398614,"203":0.06495371468487782,"204":-0.01312612157132884,"205":0.032450002811570795,"206":-0.03695426499391846,"207":0.14069879401551144,"208":0.06433459502987608,"209":-0.08152473937176274,"210":0.030023196103498018,"211":0.049109770357135214,"212":0.03931918153610467,"213":0.08292044555259696,"214":-0.03809500211997105,"215":0.06845354776413912,"216":-0.02185678146159126,"217":-0.09131264381607905,"218":-0.04971155896222007,"219":-0.18655795052513735,"220":0.06712224597382065,"221":0.10157556591330312,"222":0.11388826101196493,"223":-0.06471923762478214,"224":0.03397274905130161,"225":0.02811757936419583,"226":0.04154975843816428,"227":0.08929180355821255,"228":-0.037833447249161475,"229":-0.06201352562268048,"230":-0.0807101392486626,"231":0.09166359771088455,"232":-0.036904865400872844,"233":0.0701315611620354,"234":0.0025415316717081046,"235":-0.06368944205333417,"236":-0.06664423572116636,"237":-0.07011442296587951,"238":0.02823859462425486,"239":-0.00984266484184942,"240":-0.04099964216781195,"241":0.10523528556758426,"242":-0.14604884648764518,"243":-0.09498405729968158,"244":0.03521437327898431,"245":0.027253723712664657,"246":-0.06819134081547742,"247":-0.04771076323100186,"248":-0.026552643518284097,"249":0.05407768287977251,"250":0.0023450161670945714,"251":-0.0423311545395511,"252":-0.04972059798569688,"253":-0.018656360019245876,"254":-0.1335720190785294}},{"sx":1,"sy":1,"depth":255,"w":{"0":-0.020133296552393844,"1":0.12191708819326201,"2":0.300167422283911,"3":0.09945495362307287,"4":-0.045837661796881125,"5":-0.0170019682211868,"6":0.06605704099873035,"7":0.32990386364868085,"8":0.07241294818258281,"9":-0.030715806280899136,"10":-0.0025676507832953052,"11":0.09282396948835131,"12":0.21798545374621436,"13":0.03996876473578473,"14":0.05706398685230984,"15":-0.03515815148591392,"16":0.07419744011956894,"17":0.19753226623127534,"18":-0.09645001569520033,"19":-0.08675447341152646,"20":-0.20304917340651996,"21":0.02536020702821595,"22":0.07820708888140762,"23":0.10224453454931563,"24":0.07122487431733703,"25":0.02431051541538829,"26":-0.05247228236799358,"27":-0.0522335541792116,"28":0.13593875140997666,"29":-0.05352076385449649,"30":0.027694258127542896,"31":-0.04854482644324047,"32":-0.02693159325982361,"33":0.057520607149045104,"34":0.030183557904292578,"35":0.045493272581064864,"36":0.005288676788698025,"37":0.056031653235278686,"38":0.08089369232256816,"39":-0.014985314101450655,"40":-0.09117473663614105,"41":0.004053435729993816,"42":0.081495528364625,"43":0.10331748870953757,"44":-0.10283126778675733,"45":0.030352202386139712,"46":-0.08492368408835413,"47":0.14950280957898474,"48":0.07948910366638962,"49":-0.06938887149918671,"50":0.04969812677593159,"51":0.020476432832762233,"52":0.24723299406551677,"53":0.008162485426362874,"54":0.03510500820316428,"55":-0.06621418981693836,"56":-0.01450804277244951,"57":0.26684423354944364,"58":0.08015110668974532,"59":0.022093211582922243,"60":0.11742173906752423,"61":0.005265180595752397,"62":0.07191066669088245,"63":0.04552465412548211,"64":-0.09590950058613026,"65":0.0772255858799934,"66":0.01792872212434066,"67":0.10476257852937933,"68":-0.011343949670319594,"69":-0.06741792489788352,"70":0.053924893364778244,"71":-0.018174069294387456,"72":0.043351884700652626,"73":0.12190874248742342,"74":-0.026495202367312617,"75":-0.02317169622519471,"76":0.06283101965452924,"77":0.03583545853874273,"78":0.017381720703735698,"79":0.05034591166279839,"80":0.014292305677500122,"81":-0.08179002782038038,"82":0.023457238550182877,"83":-0.0196189940935699,"84":-0.02650029555032663,"85":-0.03997762955077839,"86":0.003019547291667104,"87":-0.139452542459748,"88":0.020930729288915446,"89":0.026867231403838638,"90":0.03893481143320622,"91":-0.030528210325809716,"92":-0.08786201891736516,"93":-0.04083232592060189,"94":0.04894390723139663,"95":-0.012395055922319185,"96":0.04036308096670003,"97":0.05986272233140482,"98":-0.05059501658989278,"99":0.13940188125779088,"100":-0.01600567109307487,"101":-0.04787853894817045,"102":-0.058694353215284246,"103":-0.09709704164975459,"104":-0.05148037692442222,"105":0.03522240502504206,"106":0.032708565613679796,"107":-0.10435571958549134,"108":-0.013736461502982801,"109":-0.028733576610673488,"110":0.044731587744760264,"111":0.055076805404239745,"112":-0.0907527576881795,"113":-0.06669676454651997,"114":0.04999545141590344,"115":-0.0436235288385719,"116":0.04718015016869236,"117":0.05554737818214686,"118":-0.04116739176023626,"119":0.007537173999128322,"120":-0.020141107341403078,"121":-0.026931430721925897,"122":0.03227478461664726,"123":-0.0003863130192724208,"124":0.004789858418485395,"125":0.009553342374754456,"126":0.008143919850823153,"127":0.09123735035789274,"128":-0.08083559635513471,"129":-0.008226979259431328,"130":0.0329050620495187,"131":-0.07275636537636367,"132":0.0510825532369127,"133":-0.01185605440600548,"134":-0.027138180500723322,"135":-0.02541618312478951,"136":-0.09784952981152857,"137":0.006712745820333202,"138":-0.004687183104471671,"139":-0.012018860901182926,"140":0.005422343419025541,"141":-0.0398424189820486,"142":-0.059266689313792725,"143":0.038582777811415225,"144":-0.05250920258769787,"145":0.029021175961069366,"146":-0.040636213735707215,"147":-0.019507220815000517,"148":-0.09022233279918261,"149":0.030294690980782506,"150":0.03883969946471222,"151":0.034769214376056026,"152":-0.06711096604822614,"153":0.06356230515007714,"154":0.045326741747180724,"155":0.023747828894086147,"156":0.1017354513321377,"157":0.0038660421211968083,"158":-0.09063729858675866,"159":-0.05130830455527495,"160":-0.0887851057071211,"161":-0.038487136621760204,"162":-0.09960567005064036,"163":0.06723451004410723,"164":0.012641758329921891,"165":0.07430256197773125,"166":-0.04538177715908087,"167":-0.11308432928116394,"168":0.07171188644759886,"169":-0.09340888024274285,"170":0.04445849735796792,"171":0.09645248546219012,"172":0.03635095139901478,"173":-0.015822168644005628,"174":0.020481256924537214,"175":-0.05036463585704294,"176":-0.08895822605165321,"177":0.044814847630110885,"178":-0.014938234442973227,"179":0.06080829634769119,"180":0.014756690114940118,"181":0.0479223591739873,"182":0.08165777019913938,"183":0.04199532704297733,"184":-0.10814704180947037,"185":-0.05070425288992816,"186":-0.03050310188923347,"187":-0.0006494158282093665,"188":-0.01801408655118203,"189":0.03506045299264173,"190":-0.009552614967132974,"191":0.021187423396121615,"192":-0.03687823310954187,"193":0.08997114579295437,"194":-0.08639254397936198,"195":0.06469009227956202,"196":-0.024149483940077363,"197":-0.03767655710370271,"198":-0.026049924022114448,"199":-0.01681836539904958,"200":-0.03983642316279488,"201":-0.05564622192290081,"202":0.03250706889824158,"203":0.056263597164696796,"204":0.05403450185804568,"205":0.08247016396881283,"206":-0.010573927312394711,"207":0.057818494459930134,"208":0.022688536806896562,"209":0.07624932967008512,"210":0.10175616024792807,"211":-0.15335610481148265,"212":-0.0305341842503018,"213":-0.011695219056001785,"214":0.08420828253065198,"215":0.08262680383345583,"216":0.08035322964926538,"217":0.058638877069856835,"218":0.035419336696674304,"219":-0.05741091584412238,"220":0.060957840524620326,"221":0.0018431163113150231,"222":-0.025483477469167435,"223":-0.01316916779743907,"224":0.003459994541334569,"225":0.06387996850050667,"226":0.1327876717802034,"227":-0.09985102221650638,"228":-0.036990502937464184,"229":0.13402160592052959,"230":-0.08238078960313701,"231":-0.0674267978273646,"232":-0.02379009722291817,"233":0.07567105125668838,"234":-0.009307856142265798,"235":-0.06764715329746526,"236":-0.07535268579817526,"237":0.003860539461927654,"238":-0.04243143702207897,"239":0.023999429557583267,"240":0.05060946405453103,"241":-0.00733039576293542,"242":0.08495463775641572,"243":-0.037088612762362166,"244":-0.08198393147210438,"245":0.07923099191814544,"246":0.0814441795420671,"247":0.0013374683118050545,"248":0.09103660787710195,"249":-0.011143131897209354,"250":-0.02688852064032864,"251":0.021746777745885706,"252":-0.02542184383719045,"253":-0.0006117614221651063,"254":0.0000522963853323683}},{"sx":1,"sy":1,"depth":255,"w":{"0":0.008938291252217808,"1":0.112104390213977,"2":0.14182252192327083,"3":0.12567532485040195,"4":0.07568659339849573,"5":0.02446527224215145,"6":-0.002535215254830586,"7":0.1727998731052378,"8":-0.07394908668505112,"9":0.042276462735702555,"10":0.003992811099071954,"11":-0.0782910569740871,"12":0.09346715732795338,"13":-0.03417866748571904,"14":-0.005953229372188713,"15":-0.11843728774510211,"16":-0.05424307167414045,"17":0.01589387501262846,"18":-0.02528082371792563,"19":0.03279688236518402,"20":-0.02946403398381734,"21":0.02395371543685902,"22":0.12993875383617728,"23":0.05508537543292721,"24":0.013458748851357038,"25":0.09158721276343706,"26":0.058639991345125896,"27":-0.022071530894441034,"28":-0.00701297505811067,"29":-0.002648418064808287,"30":-0.04313101457315829,"31":0.06581314677908913,"32":0.004763629076131707,"33":-0.038587809856637935,"34":-0.004909082860768772,"35":0.03859694206473386,"36":-0.071334814475586,"37":0.04399840378358806,"38":0.05984564848551064,"39":-0.034163211866261194,"40":0.04873788996810652,"41":0.0317882900848008,"42":0.14631302180768105,"43":0.029919711257691887,"44":-0.030513143773571647,"45":-0.10860714776644034,"46":-0.014055437244464118,"47":0.14120871677253544,"48":-0.11556944982724837,"49":-0.12430660844079489,"50":-0.10583742410195544,"51":-0.02870619827963387,"52":0.03285299016215777,"53":0.026761513542956587,"54":-0.05628796966297679,"55":0.0058838330791952526,"56":0.04954098611319615,"57":0.06743245466697737,"58":0.06385968907510307,"59":0.01121058241959592,"60":-0.07539322218727741,"61":0.018479946791858496,"62":0.006951908409274707,"63":0.021128035245721214,"64":-0.04609945573270302,"65":0.0748056874474349,"66":0.006271778933493143,"67":0.09051627192018535,"68":-0.032124638776615706,"69":-0.03416533994116652,"70":-0.025239729701052635,"71":-0.0028247011019632054,"72":0.03022277813387644,"73":-0.05392890269141758,"74":-0.08929127882798822,"75":-0.08093055316103455,"76":0.07734175506784582,"77":0.016632045694866572,"78":0.048170309064385554,"79":-0.05121509053967746,"80":-0.08234641372687554,"81":0.07426055887496727,"82":0.033196758219198014,"83":0.03164686132276874,"84":0.10395321758981556,"85":-0.015372921403389512,"86":0.09836663742493806,"87":-0.04699517757249153,"88":-0.04299758343046812,"89":-0.14427334130308136,"90":0.09308394017933762,"91":0.1266262722459082,"92":0.1270525184929322,"93":-0.05824565478059748,"94":-0.021303376249349384,"95":0.01589018611170594,"96":0.05111699659214708,"97":0.08403891540821339,"98":-0.08119319578023873,"99":0.06973516704796535,"100":-0.07988048513993931,"101":-0.02061962835114443,"102":0.0426619773006374,"103":-0.011842207746630239,"104":-0.008306004662861929,"105":-0.08907902761235208,"106":0.001661594133598238,"107":0.026151934680481683,"108":0.00859744577581073,"109":-0.09703422800453879,"110":-0.09630078950002052,"111":0.024430181958444736,"112":-0.032903713833007574,"113":0.005582190079842009,"114":0.009905532917468882,"115":-0.044786565045470315,"116":0.026594684616571922,"117":0.146499556251023,"118":0.1020036338984943,"119":-0.042646902488646846,"120":0.010478751499900817,"121":-0.03410175595383792,"122":0.0329972100974776,"123":-0.00771580150949658,"124":0.025507480409733562,"125":-0.08620465929579167,"126":-0.021869857311453317,"127":0.03268580508804119,"128":-0.04343582422103409,"129":0.13742739632057288,"130":-0.11970201736476495,"131":0.15066335241865814,"132":-0.035899320025167984,"133":-0.06179237419107841,"134":0.006796531160400133,"135":-0.06566385915024574,"136":0.02016160679727726,"137":-0.018688305981283328,"138":0.049618981513866234,"139":0.007589980443784762,"140":0.01511011359527638,"141":0.02982543532065869,"142":0.02220413008591828,"143":-0.01257800606923938,"144":-0.006595006184210061,"145":0.0769694930430846,"146":-0.005859737102002988,"147":0.12391210549332637,"148":-0.010732613578107949,"149":-0.05551545365124166,"150":-0.04434197922412439,"151":-0.040255671952407646,"152":0.030127494544011663,"153":-0.02857894568837975,"154":-0.03737614484297666,"155":-0.0013118650945386958,"156":0.0002406379764682411,"157":0.09881148627092519,"158":-0.0028599391061207994,"159":-0.09686017152364748,"160":0.0152665723223335,"161":-0.10580311951181119,"162":-0.0017677709557696406,"163":-0.03180217979161909,"164":0.005609573208003548,"165":-0.11207952436752382,"166":-0.05589342115476742,"167":0.03815976905848865,"168":-0.015880469340763606,"169":-0.046563595421492306,"170":-0.0992613319752202,"171":-0.042808612074023096,"172":0.018591027700072003,"173":0.012919834232729717,"174":-0.02096665258895553,"175":-0.08412776414866678,"176":0.025706149140512564,"177":0.07391256988774512,"178":0.06617393570371473,"179":-0.047724037588262325,"180":0.052766260219952725,"181":-0.06363686659807148,"182":-0.027673004270748196,"183":-0.007510431432077864,"184":0.03221735533122738,"185":0.04541860701388052,"186":-0.011674630609938638,"187":0.010695774941863832,"188":-0.014975451476531287,"189":0.03298166341941689,"190":0.026649556089134538,"191":0.10985967668040494,"192":0.01172688447018705,"193":-0.1102213715560044,"194":-0.008556032053001343,"195":-0.040957185105661785,"196":0.025921565484752,"197":0.09882301261997262,"198":0.08024782174525734,"199":-0.0016634966583186786,"200":-0.10215242094665598,"201":-0.006075530253912753,"202":-0.05041304044695938,"203":-0.11779133925583338,"204":-0.1374719142989204,"205":-0.11047718905272567,"206":0.03118498974869977,"207":0.0038560824476319383,"208":-0.012833844815259322,"209":0.031075284440152562,"210":-0.041478628757684696,"211":-0.004389633537567004,"212":0.007816309600859809,"213":-0.026211245186031747,"214":-0.03824390205381482,"215":0.10072317751366971,"216":-0.023865297738303305,"217":0.05174447356961443,"218":-0.07878020001916293,"219":-0.02442666392556314,"220":-0.09037522655604541,"221":-0.049822163457746434,"222":0.043704691062571806,"223":-0.03760057153782409,"224":-0.10983850824143589,"225":0.04005127110289263,"226":-0.01467992779070307,"227":-0.03415378710632734,"228":-0.0062656855679734304,"229":-0.03228267242474994,"230":-0.047315754416931276,"231":-0.013266656749297586,"232":0.0805464544946956,"233":-0.050642668842246434,"234":-0.015122407695485255,"235":0.07020511056308298,"236":0.054245749623089055,"237":-0.03531297387185555,"238":0.11713457689259103,"239":0.023064019973853614,"240":0.011937676012518302,"241":0.027155999483007075,"242":-0.002852889275928479,"243":-0.04697897042584392,"244":0.07275546638053725,"245":-0.0031134587858704793,"246":0.007237701532021708,"247":0.03263479089961405,"248":-0.09655164394786557,"249":-0.006225011844521507,"250":-0.039188122291902855,"251":-0.048630295354354314,"252":-0.06113947757104677,"253":-0.04635498385859471,"254":-0.05733754494149955}},{"sx":1,"sy":1,"depth":255,"w":{"0":-0.030872504841113403,"1":0.07932283796678137,"2":0.17082168457077704,"3":-0.0019843314906378457,"4":-0.07487225519045532,"5":0.027245584475234678,"6":-0.01096866840994536,"7":0.20022678855390202,"8":-0.01713427297361546,"9":-0.011182142147746028,"10":0.045178189175943156,"11":0.07642648555033695,"12":0.23422027020267724,"13":0.06787025113350359,"14":-0.029851913156602652,"15":-0.061170390838217084,"16":-0.0015228921875144123,"17":0.0741855950400585,"18":0.16806251214182885,"19":0.024417260199132207,"20":-0.07709507930754812,"21":0.0020206205191851804,"22":0.15629708039781925,"23":0.03542538010162784,"24":-0.014048299771199453,"25":0.13388942803357032,"26":0.06510972849536423,"27":-0.0944917842676511,"28":0.0349916778772557,"29":0.0077926953155811685,"30":0.12737475458172767,"31":0.014649465075542897,"32":0.07431912578843287,"33":0.08564233208610529,"34":-0.05544771477237042,"35":-0.0014220836151664696,"36":0.04375628036036832,"37":-0.06892144391228323,"38":-0.01108619773280815,"39":0.024638921018490106,"40":0.1005372983386378,"41":0.055847303605113564,"42":0.013712785998434725,"43":0.008956625229850412,"44":0.019092829275493318,"45":-0.009101071929853191,"46":0.010776470084130529,"47":-0.03293599027394649,"48":0.002741605655928359,"49":-0.15831385286915683,"50":-0.03609490077212758,"51":-0.03232430489048143,"52":0.3138071298186496,"53":0.005613271170717221,"54":-0.005728457081867236,"55":0.045597211751072675,"56":-0.007013903062036403,"57":0.1574470293162231,"58":-0.02665513686978893,"59":-0.0040168806334096845,"60":0.09689223351072093,"61":0.13927363187583,"62":-0.005623199869430474,"63":0.02899757315221392,"64":-0.05633675459899512,"65":0.09075600562208781,"66":0.14499535448153017,"67":0.14335129777463113,"68":0.005962550607800161,"69":0.06291570112300696,"70":-0.0035288864708526205,"71":0.0007187875480487964,"72":0.11549248552895022,"73":0.03128451266725741,"74":0.03940267321510585,"75":0.12151059250345438,"76":0.03001639612767112,"77":0.034096042957850604,"78":-0.021950298122558574,"79":0.06186485315333857,"80":0.08452773382581141,"81":0.08354318963811289,"82":0.009377682294899568,"83":-0.019124698880048113,"84":-0.03262676487969299,"85":-0.0029933548451879645,"86":0.17027875510280238,"87":0.039594934118055015,"88":0.01683385416136863,"89":-0.017221457451380373,"90":0.08062264174200533,"91":0.10079589490264644,"92":-0.01215045708999415,"93":0.06757223070930672,"94":0.007189389478618559,"95":0.0639999371000441,"96":0.04758950643804561,"97":0.052992490563400545,"98":-0.06655206145486907,"99":-0.06087915654401035,"100":-0.11897789569769333,"101":-0.06487793947371918,"102":-0.07027615544366268,"103":0.054849346690939445,"104":0.07057899807857543,"105":-0.04275118133328403,"106":0.027635148267246192,"107":0.025019325660998615,"108":0.07384859535302411,"109":-0.01551258950922783,"110":-0.0570751440567484,"111":0.014403590198559519,"112":0.05434882531955448,"113":0.03417723896704479,"114":-0.055953955524929,"115":-0.0876804589118896,"116":-0.015408907751705878,"117":0.11341195379039262,"118":-0.026383969684633895,"119":0.13749519376861216,"120":-0.032916860187767724,"121":0.008148061424650355,"122":0.009775521912331437,"123":0.01012831851560016,"124":0.06421778293270025,"125":0.06279304490177874,"126":0.012749637165936823,"127":-0.0918755910445978,"128":-0.024838447856153197,"129":-0.04303005386947771,"130":-0.07397705429214521,"131":0.033808641573555995,"132":-0.05128152230489987,"133":0.07217082352940704,"134":0.02569552799434045,"135":0.06414655261969276,"136":0.14774780789944664,"137":-0.008951138798397583,"138":0.07159137462709217,"139":0.07194151257494472,"140":-0.05173444834237052,"141":0.022024028922185163,"142":0.08076833793904589,"143":0.030774040277296123,"144":-0.05908465440207572,"145":-0.01898652204021789,"146":0.060864411565098794,"147":-0.018895893355423375,"148":0.06515289633137043,"149":0.009851901483862528,"150":0.081912736133765,"151":0.05464051182930556,"152":0.08772358779443476,"153":0.004875082470209704,"154":0.03699503375205993,"155":0.07931114768108752,"156":0.0838117414290526,"157":-0.008790360543951896,"158":0.012949152315802131,"159":-0.01796278423051622,"160":0.1110397071163366,"161":-0.06653891836998814,"162":-0.10414439254726718,"163":0.014273306911834368,"164":-0.03762501399691832,"165":-0.08990998150832524,"166":0.06020587837376182,"167":0.0791705738118984,"168":0.05873460177185992,"169":0.10446888684118898,"170":-0.05618016122901354,"171":0.0633253286996978,"172":0.06640948527742949,"173":0.05552244556281474,"174":0.011368944214428857,"175":0.03732876955982447,"176":0.063018632630282,"177":-0.030966285946180516,"178":0.026310133006407926,"179":-0.11742011875251704,"180":-0.0766242667562551,"181":-0.0974166927627699,"182":-0.017008807151837852,"183":-0.1153427551695577,"184":0.04290465039244082,"185":-0.026420355035443308,"186":-0.03867938692568432,"187":-0.07932958869087338,"188":-0.03804960709098232,"189":-0.04658504299686943,"190":0.016529868075148932,"191":0.009472738031983868,"192":-0.11961659468681544,"193":0.09895569564915385,"194":-0.05059623700757851,"195":0.05882458298538799,"196":0.0749873905822416,"197":-0.006913614492083555,"198":0.12302965544244866,"199":0.0957464561307492,"200":0.013404554703966915,"201":-0.010062515063864637,"202":0.08946756369808372,"203":0.1406041020111645,"204":0.07706482498324514,"205":-0.13674528763296723,"206":0.057025110039913784,"207":0.02188440379885199,"208":0.06677896207011953,"209":-0.013866270784126741,"210":-0.01298036515530647,"211":0.12264166103892715,"212":0.0881956628414934,"213":-0.047412457676616136,"214":0.10184587763796266,"215":-0.03707445544974972,"216":0.014652882865030262,"217":-0.09386280495937813,"218":-0.01933726171338471,"219":-0.011043485325453599,"220":-0.051598349711688266,"221":-0.03621411012202275,"222":0.013212795376373583,"223":0.041168464129449474,"224":0.024329439533673544,"225":-0.09527749589469031,"226":-0.026566323883035124,"227":0.04474552998286244,"228":0.013976098502574308,"229":-0.07197227247740329,"230":0.09689697659518176,"231":-0.05874968957554627,"232":-0.02596161285034246,"233":-0.028050469065555337,"234":-0.01822770223836056,"235":-0.07986363787004554,"236":0.14188602238297593,"237":0.14308762678050954,"238":-0.05269689316439402,"239":0.08616500749986779,"240":-0.02311469106631582,"241":-0.0893137171442094,"242":0.03666490012488724,"243":0.14095883584759283,"244":0.0733832238707577,"245":0.04528003267702837,"246":0.08463181881429417,"247":0.029378309034853334,"248":-0.025017940888268465,"249":0.0424525246698931,"250":-0.015849300317651353,"251":0.052387111946496985,"252":0.07046405100816427,"253":-0.04569199066912011,"254":0.055574072393061086}},{"sx":1,"sy":1,"depth":255,"w":{"0":-0.006877590262063447,"1":0.003437034462419351,"2":0.034378846936323725,"3":0.007482984891480537,"4":-0.024463491980528863,"5":0.002025096420810555,"6":-0.05517044993516298,"7":-0.11880299665892684,"8":0.00534063796686559,"9":-0.08991261396004649,"10":0.026195627071406054,"11":0.000712892234721213,"12":0.053609371006512946,"13":0.07458426260153105,"14":-0.04001558914753527,"15":-0.02269361010984197,"16":-0.07747549782784063,"17":0.04751705697933441,"18":0.03214193541044943,"19":-0.09474780541652184,"20":0.008032205614096217,"21":0.022503650006749386,"22":0.12210147465723019,"23":0.014753465701421584,"24":0.011619868538077444,"25":0.07275659401647357,"26":0.05375733626716191,"27":-0.041597618682707116,"28":-0.0490159064821465,"29":-0.17303976359523734,"30":0.020967997399614954,"31":0.026094376849700212,"32":0.06842430822600684,"33":0.017081812605129247,"34":-0.10324159049523358,"35":0.07089607661813478,"36":-0.11604851369961945,"37":0.18102606938249588,"38":0.028879993788153032,"39":-0.08469822100662708,"40":-0.003794756106099694,"41":-0.0923416767994569,"42":-0.01897134445971075,"43":-0.03736165616796382,"44":-0.08691535692051384,"45":-0.11888960219399562,"46":-0.005159072604578118,"47":-0.04987652169980117,"48":0.0316338220746334,"49":0.01382306271778252,"50":0.012269230830176623,"51":-0.0557646651484393,"52":0.06340068903318392,"53":-0.052353721346331185,"54":0.004230857827348804,"55":-0.0005872807971797588,"56":0.004764940948682372,"57":0.049261858935145626,"58":0.07397380432875539,"59":0.0802991235285039,"60":0.05038696984398022,"61":0.009850645620600259,"62":0.04077425277373203,"63":0.08039209839405337,"64":-0.06331249811299998,"65":-0.08919634373832304,"66":0.027446094113284976,"67":0.009207058487790772,"68":-0.06927322621970125,"69":-0.04902593374414251,"70":0.03591868658263031,"71":0.0304909650313629,"72":0.01326603764790901,"73":-0.08191608435241639,"74":-0.07738145193978489,"75":-0.06993757314959713,"76":-0.04601822047391336,"77":0.023858154654511937,"78":-0.032324925822734475,"79":0.06879060706115547,"80":0.01950300549983547,"81":-0.013896540563862752,"82":0.0020021201607496957,"83":-0.04571168433870415,"84":0.15737650457524538,"85":0.04856006313637177,"86":-0.052124703532350616,"87":0.0994595434226895,"88":-0.009435391573549966,"89":0.0056045246069925565,"90":0.06034459681701117,"91":-0.019648909620534564,"92":0.04933665076002386,"93":0.018602665564601113,"94":-0.10548655710639768,"95":0.034667689315821294,"96":-0.0809318733342307,"97":-0.07345219736280269,"98":-0.035322778045779414,"99":-0.04819720803727235,"100":-0.08860000854295454,"101":0.08689943070235459,"102":0.05700564265582055,"103":-0.1749872085793948,"104":-0.0060754073391784845,"105":0.03495679359201013,"106":0.023449844110329195,"107":-0.039817424028709865,"108":-0.004003422887238585,"109":0.04266442203951874,"110":0.019135118018459834,"111":-0.027110412165729462,"112":0.0785585471965497,"113":-0.15641539437681734,"114":-0.0730517392362938,"115":0.0959248536758914,"116":-0.034278072709189894,"117":-0.021150739174157395,"118":0.0885464054701472,"119":0.013459911506535537,"120":0.031129379185433678,"121":0.06868818928600728,"122":-0.01692585057710191,"123":0.0014700891024271106,"124":0.050469514449846486,"125":-0.05346401024926833,"126":-0.022243255531443733,"127":-0.006509918121546005,"128":0.06559333036722541,"129":-0.06259486392788971,"130":-0.12968628439747182,"131":0.03107887703748214,"132":-0.010802895147566879,"133":0.018904755408849068,"134":-0.005560865497142438,"135":-0.03872571820801471,"136":-0.06058387567047512,"137":0.06512209050984154,"138":-0.0287647579030683,"139":0.011269796431264696,"140":0.012507192016223979,"141":0.004951258891523071,"142":-0.003056137560781691,"143":0.062246008985016824,"144":0.09070724050213332,"145":-0.0393908946326238,"146":0.022921092429240314,"147":0.0412396970796035,"148":0.011991013778754882,"149":0.09114591245012926,"150":-0.025699011608014306,"151":0.06851610666733969,"152":0.04055541620250141,"153":0.061373339916153895,"154":-0.014109838768851293,"155":-0.044771479502845886,"156":-0.009666512321161967,"157":-0.052045478551112585,"158":-0.09766300611750155,"159":-0.024066759543222335,"160":-0.0605362638117834,"161":0.0432586571024723,"162":0.03404927623641843,"163":0.028225702441897742,"164":0.11456583493471412,"165":-0.04447930901138428,"166":-0.007669039102267159,"167":0.0011391285639858278,"168":-0.03885294822253989,"169":0.025233176931534998,"170":0.0692514494763422,"171":-0.044631432166333904,"172":-0.006999803940013187,"173":0.02698406889301295,"174":0.01298213106161597,"175":-0.01812678321137426,"176":0.02318456740805201,"177":0.04029579102059029,"178":0.0018874904219813972,"179":-0.005822538916114806,"180":0.0014851739838401034,"181":0.02906487389125983,"182":0.02548222014008192,"183":0.07210251825332338,"184":0.06076773559468651,"185":-0.20479976405889927,"186":0.03397985500774645,"187":-0.08893178848614999,"188":-0.027122977392486508,"189":0.0024950870584476595,"190":-0.0780951381985794,"191":-0.04282321305532799,"192":-0.00392377109524807,"193":0.0640193621140167,"194":0.01582836687983989,"195":0.04823064603961608,"196":0.04843011548941586,"197":-0.06671675672073725,"198":-0.05349169556761668,"199":0.061809125657311226,"200":0.09853754312737951,"201":-0.06453780991689893,"202":0.022102743714796314,"203":-0.018743195135756945,"204":-0.04126271599621796,"205":-0.013334095908665952,"206":-0.033838138018076065,"207":0.09159034059182324,"208":0.02435761072769966,"209":0.06330524509689267,"210":-0.027213276342758268,"211":0.06524668307340581,"212":0.035577325212408945,"213":0.010969805822379386,"214":0.0011124512748514348,"215":-0.025543037458433827,"216":-0.03825911693330215,"217":-0.02351241327670643,"218":-0.1053750445547026,"219":-0.06650149705053149,"220":0.07712037515956743,"221":-0.036265561177316524,"222":-0.001409780006883696,"223":-0.10575357045715887,"224":-0.07561978499272766,"225":0.05012395602923117,"226":-0.1118455952061894,"227":0.01194169078215275,"228":-0.03221373712672679,"229":-0.04641010050935485,"230":0.04649793712993314,"231":0.02418618931338521,"232":0.010587037880293311,"233":-0.0033999099637225185,"234":-0.06165103339377682,"235":0.08271248030512662,"236":0.08024520571443879,"237":0.03148867427167842,"238":0.0362231178620977,"239":-0.123948585845523,"240":0.030620622252927582,"241":-0.07643551534826232,"242":0.03635969542099806,"243":0.03143771095145101,"244":-0.014261149256545841,"245":0.02155186829298162,"246":0.019432080227034573,"247":0.023529084203489984,"248":-0.15896813428610718,"249":0.12017143893292857,"250":0.04025369743495259,"251":0.020749112184954642,"252":-0.07176190717321373,"253":0.011964008350775754,"254":0.05026261550747946}},{"sx":1,"sy":1,"depth":255,"w":{"0":-0.05089515950153674,"1":0.04038327784292821,"2":0.5445996474175429,"3":0.09297287003007232,"4":0.008083951846955087,"5":0.04017954063794634,"6":-0.005284682809274346,"7":0.5020458268202745,"8":0.10934080021757399,"9":0.04848216775876206,"10":-0.043398557244706336,"11":0.05661453865486359,"12":0.4934110919334424,"13":0.02754329093606446,"14":-0.04506654498489325,"15":0.0014777375246074595,"16":0.14112315948749457,"17":0.2771690502060767,"18":-0.012090404927771305,"19":0.16201097799771547,"20":0.016144060211487506,"21":0.017947725410896596,"22":0.1213352681461051,"23":0.10096148204008355,"24":-0.07412538127379464,"25":0.02453957157006021,"26":0.14599738288900904,"27":0.044843018194701996,"28":0.06914356947360208,"29":0.11898704980503368,"30":-0.04326051581980694,"31":0.15300428760390367,"32":0.05656520848096829,"33":0.14876559341892118,"34":0.01929929736921071,"35":-0.12677469922096932,"36":0.0644996037017184,"37":0.028756881046069802,"38":0.05413528354548915,"39":0.11285369143381697,"40":0.03985350695374039,"41":-0.010883364723231008,"42":0.377376020378701,"43":0.10937470682764461,"44":-0.019764596813646326,"45":-0.042473700348063886,"46":0.018487374822354404,"47":0.2901950147795726,"48":0.1478330160084484,"49":0.11308882199340108,"50":0.008516289067782824,"51":0.1054281661526611,"52":0.24885014132625827,"53":0.0036053807078295337,"54":0.0032044056825451923,"55":-0.033629814959657604,"56":0.03322693096151749,"57":0.37965037948148384,"58":0.04923063237239724,"59":-0.011690421855181573,"60":0.005525691784835757,"61":-0.027610073059277394,"62":0.10840480033770582,"63":0.07221438368631708,"64":-0.06086885592099464,"65":-0.11187666792376015,"66":0.06481166858152163,"67":0.047096465147079124,"68":0.0022516567882058876,"69":0.015329034513143826,"70":-0.008495324640879732,"71":0.10189698644195956,"72":0.07234565591264229,"73":0.0387541957628216,"74":0.0473334821872178,"75":0.04717203480581222,"76":0.06777387724476859,"77":-0.017484987708547298,"78":-0.05866766814147381,"79":0.07236976953044182,"80":0.08133539416073529,"81":0.10548192171152705,"82":0.004218643724853193,"83":0.09576700501368221,"84":0.04505410148578167,"85":0.00919025441243231,"86":-0.05542923119323426,"87":0.0058738126351821195,"88":0.06942615901058247,"89":-0.13794775952150418,"90":0.09936621086165483,"91":0.0212879071067822,"92":-0.1476921456580145,"93":0.06604382864160203,"94":0.05407361704042152,"95":-0.029929697447104664,"96":0.023078500072501274,"97":-0.016992321517718928,"98":0.19898787688231445,"99":-0.06256222268473237,"100":-0.01839946703267168,"101":-0.03155842191733304,"102":0.11025724913099304,"103":-0.019246596332602672,"104":0.014119544649713309,"105":-0.014907765857103879,"106":-0.011847538401819718,"107":0.033128250766799316,"108":0.07278057677192,"109":-0.04173353562711839,"110":0.006498832538641992,"111":-0.0223391286357989,"112":0.03868789505596501,"113":-0.00395455772795124,"114":0.005917641326112854,"115":0.01328034616857364,"116":0.09225143179075519,"117":0.036600385838459176,"118":-0.03254872944799648,"119":-0.029925446423221595,"120":0.016682706633928047,"121":0.006056733173749466,"122":-0.03475690209888747,"123":-0.022469102175651796,"124":-0.029942504670538286,"125":-0.0832936080191282,"126":-0.031194267523956695,"127":0.0701185035639436,"128":0.06653992487530914,"129":-0.06468019228487476,"130":0.023488286724805178,"131":-0.034509009307566035,"132":0.05648137308432727,"133":-0.12438163472695495,"134":0.08036002922937507,"135":-0.015433822721112166,"136":0.0012312189861226335,"137":0.14359312694213247,"138":0.07448037245343177,"139":0.005653487769584449,"140":-0.0018878967925608202,"141":0.09867239412343252,"142":0.04253265866936752,"143":0.08285401289965955,"144":0.02321571875803849,"145":0.0899978510906338,"146":-0.008964735363578795,"147":-0.0070106259664208526,"148":-0.05314691009131084,"149":0.13553140762207216,"150":-0.0006413197395308241,"151":0.09411881629449423,"152":0.06179233180928273,"153":0.05479709230868728,"154":0.017506246242273753,"155":-0.0983491666953934,"156":-0.02852058425172383,"157":0.04768404589571563,"158":-0.07815780453902152,"159":0.06890729053357005,"160":-0.02302741820465424,"161":0.0332712465779701,"162":-0.03811605362782251,"163":0.06036332644723613,"164":-0.16475712200778053,"165":-0.00043665984982672304,"166":-0.051224987704443364,"167":0.022795431127294524,"168":0.04509705755528009,"169":0.0028568233017366496,"170":0.02119353264016351,"171":0.11781362871262674,"172":0.04419685048888467,"173":-0.04740760726114735,"174":0.05906509469245472,"175":0.02894171722676587,"176":0.05865459819108462,"177":0.026115486021572484,"178":-0.028241351449127396,"179":-0.0469014409603952,"180":-0.08938981362736047,"181":0.0038700168056514674,"182":-0.03309389914356522,"183":0.03675112418224306,"184":0.04437371065686347,"185":0.006125993458216417,"186":-0.00048356871387503003,"187":0.02868137321757823,"188":-0.004206358340257392,"189":-0.011236302192341235,"190":0.017167431850615564,"191":0.008981102447339842,"192":-0.04579922439176563,"193":-0.01367855798273332,"194":-0.0912895120287663,"195":-0.01603740851812791,"196":0.07774317706428359,"197":-0.01739577038558163,"198":-0.03541385010821296,"199":0.09348413405930213,"200":-0.036075090363003305,"201":-0.026169521026653566,"202":-0.03747640441094494,"203":0.027104232350855267,"204":-0.027402365698411726,"205":0.052197601054142964,"206":0.006986367101251618,"207":-0.04698984850537682,"208":-0.030361389879143545,"209":-0.05298043951129429,"210":0.03521559728836079,"211":-0.004382245954046667,"212":0.031208786934171333,"213":-0.03416817725123664,"214":0.025675970089063256,"215":0.04034832476873919,"216":-0.012032096931688456,"217":0.06014511163410252,"218":0.08878706393764547,"219":0.10675336053291205,"220":-0.03472071182784335,"221":0.030470185968473854,"222":-0.08625834518931955,"223":-0.060042140313390994,"224":-0.006435744455026473,"225":0.06869260665976015,"226":0.03552320534247064,"227":-0.023578364694919595,"228":-0.03344991107972755,"229":-0.03817677879678327,"230":-0.05679470133591338,"231":-0.03365220113355615,"232":-0.09527928003486782,"233":-0.0251222042804535,"234":-0.052702055328566796,"235":0.017786242299966663,"236":0.07441466807809098,"237":-0.0008230410202138813,"238":0.03296998227781201,"239":0.01893350935602812,"240":-0.09544440297173305,"241":-0.07727197898918715,"242":0.05903249914943337,"243":0.10158112685873544,"244":0.0036457243908359287,"245":-0.119285780091837,"246":-0.02789691859900333,"247":-0.020644833082171837,"248":-0.05699205450528746,"249":-0.0019361909251810838,"250":-0.037418035519059326,"251":-0.07001841103936289,"252":-0.06447812307691728,"253":-0.03914273007249976,"254":-0.06692896205206006}},{"sx":1,"sy":1,"depth":255,"w":{"0":-0.08186563335521581,"1":0.0303855326337452,"2":-0.05203363031269057,"3":-0.025282056289052002,"4":0.07510194296009383,"5":0.10246257487911069,"6":-0.019745610794519086,"7":-0.10665216837520293,"8":-0.02532997104248514,"9":0.13730453042557628,"10":0.0005101731306750815,"11":0.030365900784425436,"12":-0.1068130407142463,"13":0.00489477305059561,"14":0.04537923344135357,"15":-0.024639432718779514,"16":-0.026768149648532306,"17":-0.011235512677145185,"18":-0.014701700439965546,"19":0.012399126155500458,"20":0.13478084515568362,"21":0.002598691042945222,"22":-0.10698518900670766,"23":0.04582222702074474,"24":0.009856835617380353,"25":-0.0004342869794867769,"26":0.002331334367295878,"27":-0.0319424616346499,"28":0.008107018106620586,"29":0.009723777943427735,"30":0.0781713338208269,"31":0.00040887231176339246,"32":-0.07210007343409185,"33":-0.0362107495426812,"34":0.06514957162355643,"35":0.03313801182510254,"36":-0.046418817548681796,"37":0.033278767932968564,"38":0.017159490515982163,"39":-0.005443529716674987,"40":0.0095706637422877,"41":-0.027811732650874967,"42":-0.07347054947450854,"43":-0.12183199558730194,"44":-0.09848929111339329,"45":-0.06299279071004525,"46":0.057014397808907394,"47":-0.11211333594386959,"48":0.0581012203862431,"49":0.018303515651416264,"50":-0.08547384490703455,"51":-0.05614873329499557,"52":0.0007855946573500837,"53":0.10337480463020307,"54":0.008302618664029274,"55":0.02791561667814159,"56":0.026503199946397455,"57":-0.0017869183407964173,"58":0.046120585285014885,"59":0.07423720754511091,"60":-0.015751107393337307,"61":-0.025190541411858103,"62":0.04537268792277058,"63":0.038446827641413064,"64":-0.07986304390444507,"65":0.0016145617597762498,"66":0.0344495514732252,"67":-0.09940968797861782,"68":-0.039652205218493636,"69":0.03989549471057523,"70":0.015692692112516553,"71":-0.05850958033184021,"72":0.07418942836896013,"73":0.11683430750117772,"74":-0.08186414711853221,"75":0.009455203742040027,"76":0.02515339132530563,"77":-0.05362214408953138,"78":0.006724751834690423,"79":0.06764826644949583,"80":0.04603056661077938,"81":0.15008083183600796,"82":0.05953567919677872,"83":0.04890077227618996,"84":0.05504291397572938,"85":-0.05905417829524838,"86":-0.01682744352540078,"87":-0.0373577038630862,"88":0.07935312903705843,"89":0.003575172563874564,"90":-0.04648210123781686,"91":-0.004940982504444003,"92":-0.015908089937317627,"93":-0.10263373753758548,"94":-0.1384396749639586,"95":-0.03334657186986923,"96":-0.013356794779814744,"97":0.04973251265510708,"98":-0.009354269316610724,"99":0.13274980561231658,"100":-0.014737415062264446,"101":-0.041322803255438634,"102":-0.015248980034647603,"103":0.0054110348576570525,"104":0.10941463588654227,"105":-0.038444291063237615,"106":0.023704935923634027,"107":0.007405163921076674,"108":-0.011424838828137614,"109":-0.008090448392489442,"110":-0.011954175487458718,"111":0.039875327504591496,"112":-0.025325486326218172,"113":-0.013911043090253986,"114":-0.11189184376248446,"115":-0.09239420473785698,"116":-0.05542242545966809,"117":0.005699652516623976,"118":-0.05276510442044081,"119":-0.03542594431197274,"120":-0.060238045816289006,"121":-0.005643492579590531,"122":-0.036404148259308405,"123":0.01758873378843381,"124":-0.09833030741248795,"125":0.04021792619838553,"126":-0.03488513021603181,"127":0.042450529556339794,"128":0.05956116299979634,"129":0.018520378205996085,"130":-0.04301309789992086,"131":0.04732140646962364,"132":0.012259565000315985,"133":-0.05238930664731671,"134":0.03392464446083779,"135":-0.05401823186573265,"136":-0.015166065201372496,"137":0.06592409577317404,"138":0.036580352804092164,"139":0.09981333081122323,"140":0.036084827141845514,"141":-0.032774283261062485,"142":-0.10483213999327294,"143":0.12266993097270118,"144":-0.050956828840805976,"145":-0.11534306428078628,"146":-0.12896626192132957,"147":-0.06771788179947959,"148":-0.04025392203188914,"149":-0.04233128148860983,"150":0.025291624899439896,"151":-0.04368088108523241,"152":-0.03875795524969557,"153":-0.023393858836442807,"154":-0.01788267521657487,"155":-0.014528224521748461,"156":0.1457127338072693,"157":0.04636294282130044,"158":-0.01893558412893117,"159":0.01617736627346049,"160":-0.02389799084031673,"161":0.0555979053012354,"162":0.10645004603234466,"163":0.06320737714455342,"164":-0.02148187014994094,"165":0.04575259346314387,"166":-0.13090726951102444,"167":0.0608948347008633,"168":-0.01310596546009997,"169":-0.08866265344560662,"170":-0.09238829638796373,"171":0.04889393954702845,"172":-0.08105800762344322,"173":0.015803346499712684,"174":-0.00230137449129075,"175":0.10136259996756188,"176":-0.06190697372565171,"177":0.07277387374685483,"178":0.04383595464196434,"179":-0.025555874635925176,"180":-0.037632728751265734,"181":-0.09211842862993627,"182":-0.07921804320546638,"183":0.014381071281796918,"184":-0.11200613321862764,"185":0.01160701071327907,"186":0.00315665741860007,"187":0.0032570230703648398,"188":0.011043445948520204,"189":0.025893390890975487,"190":-0.020466697165815527,"191":-0.11390879411463202,"192":0.06779766360860998,"193":0.020026021578456104,"194":0.004974293053974971,"195":0.009186686719499784,"196":0.0742489536005273,"197":-0.054189960612655026,"198":0.04940581680910775,"199":0.05592352094855485,"200":-0.03135522911622825,"201":0.020243083074609137,"202":-0.029602453278217304,"203":-0.02694752405935627,"204":-0.07513514829555386,"205":0.05740707732793892,"206":0.018758729356019323,"207":0.07134260253389133,"208":-0.006812969068086906,"209":-0.09559625780886392,"210":0.039419076677574556,"211":-0.03280959891015538,"212":-0.019853179574303183,"213":-0.03752141851796326,"214":0.0016102329168692488,"215":0.0553801229443835,"216":-0.031156407886909283,"217":-0.1454796577865506,"218":-0.14798239663901103,"219":-0.017015719732687506,"220":0.08779013886046134,"221":0.027807619392010274,"222":-0.028100661405715738,"223":0.0052126753417391725,"224":-0.11943264123542864,"225":0.01824748369905057,"226":-0.0404420755538981,"227":0.1060874353385545,"228":0.005770759240287683,"229":0.1093914075730302,"230":0.05766639895995585,"231":-0.003956036316256797,"232":0.03393437189418496,"233":-0.029358603352377454,"234":-0.014095049869681561,"235":-0.07033330410483671,"236":0.06773009011561142,"237":0.07729927443525814,"238":0.020764550829352593,"239":0.026258160110603557,"240":0.023948537772718936,"241":0.09661792777326454,"242":0.0216181182032519,"243":-0.1306014514956167,"244":-0.04676008888429665,"245":0.04309190062057063,"246":0.027198520242813023,"247":0.08843524054741973,"248":-0.0497405513618816,"249":0.043169997343708626,"250":-0.06267876765986005,"251":-0.04157009928083544,"252":-0.07105842370996075,"253":-0.0779538743540122,"254":-0.10754741668320716}},{"sx":1,"sy":1,"depth":255,"w":{"0":0.02583068817035464,"1":-0.11921642249189368,"2":-0.0340698986502005,"3":0.02587182820505318,"4":0.008442810402710424,"5":-0.05995813764461959,"6":-0.06518162728848631,"7":-0.0694541747457162,"8":-0.09491836201250697,"9":0.05122627577471284,"10":0.008863231654509035,"11":-0.09434691084261587,"12":0.02840134274152779,"13":-0.09257015185077222,"14":-0.1359229562636825,"15":0.020271680406326983,"16":-0.00793740824392435,"17":-0.00851089858262301,"18":0.054407850646879204,"19":0.005657254492048852,"20":-0.005812410415889465,"21":0.010561752996398225,"22":-0.071362825262448,"23":-0.025364276277689023,"24":-0.042914967698410786,"25":0.04076750814530655,"26":-0.05139303670805381,"27":0.04359590538003033,"28":-0.031433814505379964,"29":-0.009469833609736066,"30":-0.09523119051550126,"31":0.05813238625028356,"32":0.06455263166358124,"33":0.07880831447251514,"34":0.09282284277595215,"35":-0.09839017479491698,"36":0.005594313890333785,"37":0.004574397191513272,"38":-0.03945128780089505,"39":0.023893325762197735,"40":0.059670018243941234,"41":0.0720671130925169,"42":-0.024489555657049664,"43":0.019608707152687598,"44":0.0017144147089085977,"45":0.00028189716565920876,"46":0.007535050707642216,"47":0.0039514003797738815,"48":0.06775718732682208,"49":-0.08706534958194749,"50":-0.025675128975636684,"51":0.0860976459561877,"52":-0.02377891428595995,"53":0.022509040764619168,"54":-0.02655982464476585,"55":0.059022202864332775,"56":-0.03757640752754764,"57":-0.08915623865102416,"58":-0.02593568856638697,"59":0.06546097933407793,"60":0.029647133204870803,"61":-0.025920324203765003,"62":-0.029273924670840102,"63":-0.004992401361858567,"64":0.01529314495076236,"65":0.0430590494136796,"66":-0.05799903014342461,"67":-0.23305438498003875,"68":-0.0015439545677542758,"69":0.025109122019597262,"70":0.0349714348691575,"71":0.06036932481523868,"72":0.030552579873593763,"73":-0.06757495853587751,"74":-0.019155753441054284,"75":0.014011461490349758,"76":0.027664190664212485,"77":-0.0977845788639549,"78":-0.04417848225257148,"79":0.008405923920380866,"80":-0.07340184271079386,"81":-0.05281125682874712,"82":-0.07862427033544411,"83":-0.09529728943241725,"84":-0.034418787820640916,"85":0.013464952195087579,"86":0.022531197776160947,"87":0.009306843840444338,"88":0.059350641537853535,"89":-0.0707361957250756,"90":-0.06461696913758831,"91":0.0037745918308395737,"92":0.10644765521970653,"93":-0.09459213370400456,"94":-0.054738183089566635,"95":-0.01680291707550351,"96":0.04003072344130386,"97":-0.01248293671980991,"98":-0.03416108723731654,"99":-0.05484987024475919,"100":-0.13051876600864082,"101":-0.034515506639126545,"102":0.05136233543257997,"103":-0.04284213300313966,"104":0.10809099764536004,"105":0.06342264538467235,"106":-0.08585870491383168,"107":-0.0009308275525769569,"108":0.03172521167553391,"109":-0.06750037090216261,"110":0.08874228272290949,"111":0.06755770533632827,"112":-0.011530750387653095,"113":0.05963157575982425,"114":0.11977976587057997,"115":0.05331780903334964,"116":-0.04518402123633265,"117":-0.048675992396686026,"118":0.031186739417501896,"119":-0.11034943031175927,"120":0.03539052200471356,"121":-0.10186940217120675,"122":0.06459483304052052,"123":-0.012010842395325856,"124":0.04584703796078325,"125":0.010583660714123632,"126":-0.011797840544957914,"127":0.04246791258382953,"128":-0.016357019203001203,"129":0.07356868349633099,"130":-0.0495956605529404,"131":-0.04893114895858315,"132":0.005460242632324292,"133":0.009417049664798378,"134":-0.07982759130064118,"135":0.0633003253787632,"136":-0.03319366575105218,"137":-0.03956931874680521,"138":-0.012723544632349646,"139":0.021866345312759324,"140":0.04723127348914634,"141":0.04639969357775182,"142":-0.06785281232319702,"143":-0.12905244055918877,"144":-0.01834728148548342,"145":0.07264324522158541,"146":0.027185177354427544,"147":0.02699758480040918,"148":-0.04245692778510617,"149":-0.14325487581277876,"150":-0.01568286350187274,"151":-0.1146054415737906,"152":0.050371840523786876,"153":-0.0025688297752279343,"154":0.18100614013960092,"155":-0.0868196506658073,"156":0.023748496261528206,"157":0.06830483349323312,"158":0.00116477510750684,"159":0.05036201728324156,"160":-0.014773521602957087,"161":0.046499160321146794,"162":-0.0573890096013601,"163":0.14093769411709184,"164":-0.03271948281060873,"165":0.05531748987894265,"166":-0.007023610330007518,"167":-0.010425991306130125,"168":0.043168548988322925,"169":-0.099934981779601,"170":-0.08918234780067469,"171":-0.04215725274707257,"172":0.06389333339875847,"173":-0.0496896419296154,"174":-0.02019400874504227,"175":-0.04192542002198072,"176":0.07439535436854484,"177":-0.009927473977643302,"178":-0.0365134175487977,"179":-0.009459399471468868,"180":0.005370264900294289,"181":-0.11556140257933231,"182":-0.023148802703330335,"183":-0.035835751192543494,"184":-0.08952899975913582,"185":0.06914278190446962,"186":0.0009841769548005683,"187":-0.03432770235877575,"188":-0.01527572851748207,"189":0.08620553364267551,"190":0.03937322345232039,"191":0.004212704782890681,"192":0.019643677174388124,"193":-0.0004672586506171158,"194":-0.03576544810686214,"195":0.08856266145982503,"196":0.007116085066816173,"197":0.16187380408991606,"198":0.06901145081981593,"199":0.09611474228734536,"200":0.0642420790399266,"201":-0.007444885949816882,"202":-0.047374178294777074,"203":-0.11190962048237572,"204":0.08921152604725129,"205":0.039438758095562805,"206":0.009030624424684804,"207":-0.09000787916553278,"208":0.07206021901211052,"209":0.04979883188450878,"210":0.10589572937373917,"211":0.08638073334997097,"212":-0.06212259536523563,"213":0.0102195924726665,"214":-0.013602744196379848,"215":-0.004671404196647755,"216":0.08313531614990237,"217":0.005133103904866814,"218":0.0924166439683197,"219":0.02928766376794137,"220":-0.08443837709667051,"221":-0.07073981098194448,"222":-0.14363610211138406,"223":-0.11319554601339131,"224":-0.02080072100400686,"225":0.06052258551992503,"226":0.008030670363302848,"227":0.00986437892371743,"228":0.04801419934417849,"229":-0.07338652626019795,"230":-0.05635604506346868,"231":0.05771895090874477,"232":-0.06883298985256998,"233":-0.07686163492242781,"234":-0.059110918920641624,"235":0.06182704997602475,"236":-0.020200903098020813,"237":0.041731588870911225,"238":0.10274340782798991,"239":0.07159621195258581,"240":0.07272467013126414,"241":0.12095632226309477,"242":0.10890272989066764,"243":-0.05862557564484181,"244":-0.0477306584647473,"245":-0.047577078034077104,"246":-0.003543388231338042,"247":-0.02135471535549186,"248":-0.08124865211097453,"249":0.03742337065801731,"250":0.08625412752680973,"251":0.030090631244309808,"252":-0.09931716586800152,"253":0.028818241816911786,"254":0.07744656160548252}},{"sx":1,"sy":1,"depth":255,"w":{"0":0.0482106584329562,"1":-0.12197735267407689,"2":-0.006397485452443596,"3":-0.12409126697199144,"4":-0.003644553776500217,"5":0.0573415500000215,"6":-0.02403345639101619,"7":0.08287540395761302,"8":-0.018743007619994936,"9":-0.003415344229422646,"10":0.00010560486102266978,"11":-0.08277954252266966,"12":0.09287681615142825,"13":0.02730740029596571,"14":0.09405386554467815,"15":-0.014034479063154998,"16":-0.07877769623132198,"17":0.028499793114678682,"18":-0.0064027099226836096,"19":-0.044734116985541424,"20":0.09257716524279193,"21":-0.08105636791425105,"22":0.0029337337886022664,"23":0.013134400032130336,"24":-0.05240261101105751,"25":-0.011959291922126133,"26":-0.034586045653507654,"27":0.04103900829020776,"28":-0.01711070241344363,"29":0.06765946865914747,"30":0.08418089335155385,"31":-0.0183304948635218,"32":-0.014202272034228892,"33":-0.05434640097901608,"34":-0.09621628539216906,"35":-0.0592391728441458,"36":-0.05669153915763867,"37":0.0684028954621534,"38":-0.007487962070205448,"39":0.023940365070513097,"40":0.08025016627789423,"41":0.020514700883146046,"42":-0.09940447169749968,"43":0.03550652507846688,"44":-0.058782335753361545,"45":-0.07712664143688457,"46":-0.0655078147791306,"47":-0.04359456931614863,"48":0.057252686383819903,"49":0.10261167747763894,"50":-0.03800349729616111,"51":0.10168696813772832,"52":-0.03465433546686139,"53":-0.057177054436331594,"54":-0.04337541089671211,"55":0.06499814373525753,"56":0.016920304755966478,"57":-0.08115056714152045,"58":-0.030909762881054133,"59":0.13462619840687667,"60":-0.10624408573602744,"61":-0.004769676739604722,"62":-0.11996674289131615,"63":-0.07673809024348269,"64":-0.005637922443414356,"65":-0.05957539900525177,"66":0.008433711773280114,"67":-0.1209160396127232,"68":0.0876384367075435,"69":0.010177973499526,"70":-0.006525859599946359,"71":-0.035100665948522916,"72":0.030016684579575775,"73":-0.10526251249511073,"74":-0.12019254315142401,"75":0.06434316879061046,"76":0.13658488484790632,"77":0.09552843877887825,"78":-0.003425868790451469,"79":-0.0783377543747091,"80":-0.0708424813640475,"81":0.04918368434058834,"82":0.002642205824880892,"83":-0.01265720426343059,"84":0.037552003122445034,"85":0.10095325874046306,"86":0.01981395805737542,"87":0.00805624154965891,"88":-0.0607539291813866,"89":0.029429222606648493,"90":-0.016862467189313946,"91":-0.15511683210273813,"92":0.0599336156133888,"93":0.0415766959205877,"94":0.08585793668688395,"95":0.03173028777179903,"96":0.19584252977569472,"97":0.04994415377493338,"98":0.0940471897859557,"99":-0.0032303715666539847,"100":0.03492185658372046,"101":-0.04914461709896079,"102":0.009167088684519641,"103":0.009027722216000665,"104":0.07640113424499433,"105":-0.06715831365296636,"106":0.022288207846767216,"107":-0.04254173083936584,"108":0.009694178189804632,"109":0.021060988300272462,"110":-0.027649069479437172,"111":0.0016907187990037565,"112":-0.12578815672171317,"113":0.07929366155201445,"114":-0.04717719266277493,"115":0.08073891249078219,"116":-0.061202080449895564,"117":0.07088417044771106,"118":0.07666961511958612,"119":-0.029249905553424594,"120":0.02518930923763504,"121":0.0030489178629415736,"122":0.06867159222999532,"123":0.060823081240663456,"124":0.046503412606644104,"125":-0.10396974669760803,"126":-0.045037869217235876,"127":-0.009041817711894839,"128":-0.003357086308296483,"129":0.09796359846260849,"130":-0.04017049826838707,"131":0.004259878266005349,"132":-0.07633984885596838,"133":-0.06605030732621206,"134":0.05880441598062306,"135":0.04176708832714555,"136":-0.10366547309298013,"137":0.017795778639627308,"138":-0.025780921220443447,"139":0.16874614817897915,"140":0.023523586324569135,"141":-0.12358315554344008,"142":0.1376652997802985,"143":-0.08242357342017971,"144":0.019886518991205825,"145":0.03785670311093117,"146":-0.0010880505160627929,"147":0.02374483968544335,"148":0.0736245179029595,"149":0.006618094792126447,"150":0.09353724081404391,"151":0.05251291914756695,"152":0.021578315078130815,"153":0.08231679620964891,"154":-0.04727318595911684,"155":-0.1030158175827983,"156":0.035857068393789826,"157":-0.03819271867154488,"158":0.03866565657617593,"159":0.05229406688853103,"160":0.05635795365249695,"161":-0.0037117602194947094,"162":0.01613593270244274,"163":0.09147000065412844,"164":-0.0627579200569859,"165":0.05383218400051535,"166":-0.0058443836642277985,"167":-0.024007187681765185,"168":0.10067746184615402,"169":0.08436976194954048,"170":-0.03388528612343206,"171":0.049251591532258776,"172":-0.024546411245945428,"173":0.12547682243051494,"174":-0.06310983177014534,"175":-0.06551787958729298,"176":0.1474493654663839,"177":-0.025889995781922366,"178":-0.07737254403554956,"179":0.0785500021171073,"180":-0.016099497041488185,"181":-0.016466148702003466,"182":-0.10014025948046733,"183":-0.01594204344175087,"184":-0.07555158815479851,"185":-0.019784780654898734,"186":0.00034761916536148077,"187":-0.10623401339906592,"188":-0.027975929251519874,"189":0.042888655887162494,"190":-0.025894676987360792,"191":-0.008944707975817158,"192":-0.12243379668457582,"193":-0.01995679866158357,"194":-0.01623508985566117,"195":-0.0356564082617787,"196":-0.018262740008827164,"197":-0.011493543828967013,"198":-0.0428159983075465,"199":0.07024191389253046,"200":-0.033791834204604645,"201":-0.020453107435820492,"202":-0.0030740211111523565,"203":0.03937755816950268,"204":-0.12179253903784204,"205":0.06895074659747491,"206":-0.09731526478398138,"207":-0.031318658871971536,"208":0.0397343074497504,"209":-0.044636385387830144,"210":-0.046106588715821566,"211":-0.08578635953576629,"212":-0.006594558338785157,"213":0.008214551534291842,"214":-0.06526849278274299,"215":-0.07301818163241416,"216":-0.036177045465114424,"217":-0.0034860879330341392,"218":-0.06624029287674973,"219":0.0005302784712535605,"220":0.03849006215897734,"221":0.016385781687000896,"222":-0.02697236219891408,"223":0.0024903741463749556,"224":-0.024234753953828042,"225":-0.016947493516800898,"226":-0.04961836565819,"227":-0.015749413305885737,"228":0.07548635059729523,"229":0.06988277930214347,"230":0.012968019698740629,"231":0.06763271896766779,"232":-0.06321641815511865,"233":0.07009358537532828,"234":0.10399870757880376,"235":-0.0077747091430126905,"236":0.009816488889028668,"237":-0.06262535452348596,"238":-0.10522442725907448,"239":-0.1270824404967034,"240":-0.034806616229385426,"241":0.112598401589409,"242":-0.01850230655887586,"243":0.004045448060118185,"244":0.1025499078142222,"245":0.0421027722460961,"246":0.08288739607288795,"247":-0.1517420209913361,"248":0.10660445154183687,"249":-0.01419069044674691,"250":0.02389809702560493,"251":-0.014943972969637415,"252":0.021070040403082968,"253":0.007137041696424923,"254":0.001856043027922785}},{"sx":1,"sy":1,"depth":255,"w":{"0":0.04028925305736319,"1":-0.006788984681332682,"2":0.019858189734126678,"3":0.0001266624928753966,"4":0.01871277891672041,"5":0.0679166605844654,"6":-0.06222631800022946,"7":0.07597692407018078,"8":-0.0032136943680209948,"9":0.09321423758996718,"10":-0.04167174350046699,"11":-0.012687034678672585,"12":0.03802029957977273,"13":-0.09959484914244784,"14":-0.02323646776623995,"15":-0.10775785323563944,"16":0.03570178152012506,"17":-0.10357929235580306,"18":-0.06267267404459805,"19":0.1056042692572441,"20":0.047234709875707936,"21":-0.009036669285642273,"22":0.06315460229347153,"23":0.09077828314365803,"24":-0.022315492922896012,"25":-0.007301047633025627,"26":0.04417979508657167,"27":0.014151326993183586,"28":0.04041905538037752,"29":-0.10833254229839033,"30":-0.04902160858560809,"31":-0.026430423171190185,"32":0.014971497277127944,"33":-0.06865463927663219,"34":-0.026373325377326944,"35":-0.06567600530621709,"36":0.04039430771129,"37":-0.08889088994191713,"38":-0.02235467095428836,"39":0.015283061493448795,"40":0.000024863662461483848,"41":-0.08965545257788941,"42":-0.004175174073125453,"43":0.030601685813089332,"44":0.06636861121441676,"45":0.14049939623140395,"46":-0.015594095230406377,"47":0.01952721297610895,"48":-0.013095251228472712,"49":0.029195174873622234,"50":-0.09084233941387662,"51":-0.036487268569945164,"52":-0.05754504330711497,"53":0.1153836024277458,"54":-0.0633190682273094,"55":-0.021414390227687524,"56":0.02209251649269146,"57":-0.026557729524737467,"58":-0.014434638920393511,"59":-0.050220353581592755,"60":0.03380596621463906,"61":0.006655335274747685,"62":-0.07184278771826863,"63":0.028888100174458593,"64":-0.002286406481803568,"65":-0.03482921157300414,"66":0.05911958041965387,"67":-0.03410652007807721,"68":-0.06084775804840906,"69":-0.018373586049846985,"70":-0.04011121090478309,"71":-0.017533583524044206,"72":-0.002119147607862558,"73":0.16129542313788223,"74":0.043594326576488276,"75":-0.013639404876161963,"76":0.02248535253591236,"77":-0.1925646518686715,"78":0.06880553164049187,"79":-0.014359682188287736,"80":0.008087820273352522,"81":0.05975903214260734,"82":-0.07911744927599468,"83":0.000385727226679824,"84":0.04075780697196397,"85":0.07132117342056288,"86":0.018837785481816353,"87":0.011370295674802655,"88":-0.005799516888978934,"89":-0.0048660353704457916,"90":0.1297568669295284,"91":0.007987716916988982,"92":-0.03337254353695156,"93":0.0517056983144833,"94":-0.017725645916542666,"95":-0.005088125845434323,"96":0.05756211872450162,"97":-0.06581264604004594,"98":0.062215247821462843,"99":0.11315769531489987,"100":0.030979923191297113,"101":0.22343601299954194,"102":-0.09704704095070563,"103":-0.01710006899844332,"104":0.015640264632043762,"105":-0.00496413086030371,"106":0.08428574374769988,"107":0.014434418319314005,"108":0.04122040120045421,"109":-0.04429770062816416,"110":-0.07537705514867829,"111":0.026811291205031274,"112":-0.08083112529929191,"113":-0.014308630942786895,"114":0.04198251454381573,"115":-0.0007220431391311156,"116":-0.0001254803980569677,"117":0.03968685732661502,"118":0.026657396518403757,"119":-0.06346368851950147,"120":-0.02753629405667925,"121":-0.08603887817259666,"122":0.0487661510410424,"123":0.08787599888205672,"124":-0.03250542765157157,"125":0.029490111167050585,"126":-0.10726586968177944,"127":0.053213693042634055,"128":0.06069632840719327,"129":0.08840568727316299,"130":0.09914727581691463,"131":0.011562944158651531,"132":0.018651491828108123,"133":0.005133414843042326,"134":0.06433794471516277,"135":0.05093064704966046,"136":-0.08155703209888293,"137":-0.04022359290227754,"138":0.03309705945205961,"139":-0.0566607108082078,"140":-0.07150729001880145,"141":0.08546722365913714,"142":-0.015821263978151704,"143":0.0003236066242828321,"144":-0.09358533657924305,"145":-0.07072570005394242,"146":-0.11190941789580869,"147":-0.08563166756809813,"148":-0.04872100164749522,"149":-0.013179960743799304,"150":-0.005852002179917476,"151":0.009265903108464871,"152":-0.016360608200534338,"153":-0.04532327023059339,"154":-0.003533709065695431,"155":0.07687270587427589,"156":0.023399797067218106,"157":-0.034668554536511305,"158":-0.10388494028665851,"159":-0.013828825226161178,"160":-0.024028596304341305,"161":-0.012882760644335784,"162":0.011906697943015517,"163":-0.10983939682290665,"164":-0.027117005753081617,"165":0.06455018136749158,"166":-0.019927667375244113,"167":-0.09145694936368828,"168":0.08359941842729719,"169":0.01920272825807967,"170":-0.04571497049573845,"171":-0.011814816180054274,"172":0.030362680446950802,"173":-0.006094304254058054,"174":0.04876532713728191,"175":-0.0785335641215576,"176":-0.11702716339159829,"177":-0.07598121618222045,"178":-0.00976446739684051,"179":-0.18061987922158998,"180":0.016100852913369944,"181":0.023654757309903945,"182":0.020330556195182117,"183":0.05601662919093694,"184":0.051518084343253084,"185":0.057336875460696005,"186":0.1434213987659312,"187":-0.0435338209288858,"188":0.009517605831371184,"189":0.04501013499427611,"190":-0.07257538692121157,"191":-0.003698376599308391,"192":0.080656049716065,"193":-0.05416131549555439,"194":0.0777881287292963,"195":-0.05630325848079272,"196":-0.060364571432410745,"197":0.03254570809636855,"198":0.08464450345776685,"199":0.026753194567377864,"200":-0.09000469678660299,"201":-0.0360137415370013,"202":0.00004817621361590197,"203":0.00993091732744255,"204":-0.02677933017522671,"205":-0.0845700536924109,"206":0.04415044645187084,"207":-0.04460472210698301,"208":-0.054157603562392534,"209":0.005573657038041692,"210":-0.04360378469347585,"211":0.0866029715445943,"212":-0.04565013506397681,"213":0.035605833499012716,"214":-0.13912243960182097,"215":0.04174371135369152,"216":0.04649180253665939,"217":-0.05226806944610099,"218":-0.05008447529339249,"219":0.08462060793485705,"220":-0.04475425627105565,"221":0.06182811484614323,"222":0.06425526119726978,"223":0.02600759531292545,"224":-0.032541452326929586,"225":0.032982549478079465,"226":0.04739421112226663,"227":0.045141395145058626,"228":-0.01869211126168207,"229":0.06416945098653588,"230":-0.11419674632411853,"231":0.10119785171091676,"232":-0.08559957776657394,"233":0.050618418389591587,"234":0.06781756861445405,"235":0.004433737567552634,"236":0.08501642089308117,"237":0.031390586048233256,"238":0.031701975825630196,"239":-0.07447207174195378,"240":-0.048648325056430713,"241":-0.0031349617239439533,"242":0.0646737814099604,"243":-0.005029631527623074,"244":-0.03170466023564939,"245":-0.1333847432568863,"246":-0.02374909378949117,"247":0.004982307606695605,"248":-0.043875884764468326,"249":0.06806738642450241,"250":0.07228215626910484,"251":-0.028963873634660534,"252":0.10022954930938777,"253":-0.01052525374728781,"254":0.0771579974569208}},{"sx":1,"sy":1,"depth":255,"w":{"0":0.030298274996766468,"1":-0.06667970730816133,"2":-0.13786559706323784,"3":-0.07455397792119642,"4":0.02152644809087012,"5":-0.06435918759356689,"6":-0.0946256644638281,"7":0.060590137124171384,"8":-0.0565615890904693,"9":0.033593579957142766,"10":-0.0018074485389961321,"11":0.016235187144397353,"12":0.022470296858774157,"13":0.03272647991458002,"14":0.06484273790622243,"15":-0.04744481802593219,"16":0.04165002267433288,"17":0.05281428740596968,"18":0.09156159705622847,"19":0.039966285047268034,"20":-0.0648760580130439,"21":-0.04640182618853174,"22":0.05550232841814963,"23":-0.08160889519306863,"24":0.09395209041402203,"25":-0.07095422925130541,"26":-0.04264736479974831,"27":0.04575177068787853,"28":0.02572694058688207,"29":0.0009652050121458279,"30":0.0738026033887665,"31":0.04968366559739158,"32":-0.05324312473214746,"33":0.019576231852240385,"34":-0.05554789605448314,"35":-0.05747490628022959,"36":0.01206077963031468,"37":0.014991057738242152,"38":0.04179224476515364,"39":-0.001983940559074695,"40":0.03420203082344538,"41":-0.045433345224641715,"42":-0.16046306915036712,"43":0.005773842870836249,"44":-0.003294254383181769,"45":-0.06301763029924809,"46":-0.09750538553821732,"47":-0.17016582006418884,"48":-0.04988958775322212,"49":-0.0273869744346886,"50":0.09944232547321163,"51":0.042812648783776705,"52":-0.2038341951426095,"53":0.07406885159988344,"54":-0.06343229384274114,"55":-0.030552070702597318,"56":-0.03427966683183523,"57":-0.22296549908392782,"58":0.054289187751672255,"59":0.07241632803519198,"60":0.09087258585309894,"61":0.056462521450736845,"62":0.02673109292797853,"63":0.03558230108260671,"64":-0.04994705672970054,"65":0.14206807352536843,"66":-0.07623197066451602,"67":0.012976400435777814,"68":-0.08239124776385096,"69":0.015107552885862414,"70":0.03220748088987205,"71":0.08486284635573525,"72":0.07570310066177559,"73":0.05472539512381468,"74":-0.10878486009800879,"75":0.041775253127600054,"76":-0.024916964252195452,"77":0.07812440573459908,"78":0.03416527589362563,"79":0.0317039037576663,"80":0.0266382250512172,"81":-0.04642407067457853,"82":0.22172189654865132,"83":0.024950733502563275,"84":-0.008568852166545486,"85":-0.01786223265293542,"86":0.09145058170927305,"87":-0.0429878636457942,"88":-0.050867824247660016,"89":0.07420289169618428,"90":0.0038366706461463477,"91":0.03433084408011795,"92":-0.001237915933662758,"93":0.03874530246367877,"94":-0.06851495714909002,"95":-0.08097912567069214,"96":-0.0019986061590817725,"97":-0.02841911604340508,"98":-0.007534566454285787,"99":0.013771932152375595,"100":-0.014583203771995398,"101":-0.07660623760937964,"102":-0.16259872826506638,"103":0.044787623582088605,"104":-0.09815549908791807,"105":-0.02479207942490332,"106":0.0028023399996025193,"107":-0.12012575261170226,"108":0.058691587696003064,"109":0.027702580410305443,"110":-0.010071404316745447,"111":-0.04110967627686477,"112":-0.17404159453780776,"113":-0.1068103193060515,"114":0.0025320542575878683,"115":-0.08858937887509125,"116":0.07019178960347218,"117":-0.008727199798216914,"118":-0.04785433659783739,"119":0.022732575834722664,"120":0.0674967751221384,"121":0.02309434867563883,"122":0.07909105022634517,"123":0.06282646499172954,"124":0.06312692871481976,"125":-0.07230868000497895,"126":0.08200033833837274,"127":0.0352524466128123,"128":-0.06583839589505217,"129":0.08651677989132045,"130":0.06047270092051757,"131":0.04800958842104732,"132":0.0615346886509146,"133":0.023414457457905977,"134":-0.09262869811056156,"135":-0.03924415162405567,"136":0.009213878037071575,"137":0.04795307406905281,"138":0.024112514171023565,"139":0.025612656223273862,"140":-0.04294055469584594,"141":0.06904157769105453,"142":0.09720538771427344,"143":-0.00899778119800049,"144":0.007885949658811944,"145":-0.08472901464431606,"146":0.005810909915438873,"147":0.16257944356751575,"148":-0.017723320510824543,"149":-0.1107636296338739,"150":-0.019529929704667322,"151":-0.03344479106929761,"152":-0.03568051138222849,"153":-0.03273724754552931,"154":-0.09245370924398703,"155":-0.019765321712917214,"156":-0.07428676871254752,"157":-0.007644125912721725,"158":0.028512397316513675,"159":0.01886946295821029,"160":0.15671241974350616,"161":-0.0048425721735667225,"162":-0.02168558182483883,"163":0.0348449247690182,"164":0.06474188115436194,"165":-0.0394053537169065,"166":-0.049257889298346735,"167":-0.2104270073422723,"168":-0.007480355374455807,"169":0.01072519130966107,"170":-0.006668928800859872,"171":-0.09917298530720407,"172":-0.08360386107675133,"173":0.008330713504286755,"174":-0.10388330119034826,"175":-0.0898442196025814,"176":0.03682590208103899,"177":-0.05875566217201629,"178":0.018216990268869235,"179":0.0076476911855470715,"180":0.08581454077461964,"181":0.029357276358194417,"182":-0.18479448742655713,"183":-0.005208768783660308,"184":0.054763380113850325,"185":0.015429339073876922,"186":-0.02180050631714584,"187":0.0799494620560309,"188":0.019189817451700755,"189":0.0017213945963562116,"190":0.031626621413916554,"191":-0.04737031822088273,"192":-0.0676323431190694,"193":-0.062243375167160456,"194":-0.01885113570252053,"195":0.0031261689841053063,"196":-0.06059517572425838,"197":0.1112160498377299,"198":0.022847670135873126,"199":-0.1021651129033998,"200":0.05064019490558359,"201":0.03063339322697672,"202":0.061962836700725395,"203":0.14268701359460803,"204":-0.040681254806301165,"205":-0.10896749234546406,"206":-0.017446949030617512,"207":0.06397635321970686,"208":0.063393626575809,"209":-0.005602333234769804,"210":0.12018093101353818,"211":0.011820432190666894,"212":0.06077219378053473,"213":0.03913736951154049,"214":0.028705764958194675,"215":0.18687681459714978,"216":0.13047492126959587,"217":-0.05269828880222546,"218":-0.018163912682529454,"219":-0.06007543369005346,"220":0.08355095778211598,"221":-0.05466867616449997,"222":-0.02860092295492203,"223":-0.017169479686993293,"224":0.07022524354812117,"225":0.08308741808855113,"226":0.01161705735954873,"227":0.0031184888268332785,"228":-0.06679070122280412,"229":-0.05645512234349487,"230":0.014652760654462853,"231":0.08935570578727803,"232":-0.14365277053604683,"233":0.021658473052209304,"234":0.033719328799075986,"235":-0.05982874523520583,"236":-0.06674890552304429,"237":-0.2107065721528035,"238":-0.018647621750955235,"239":0.037609361495270256,"240":-0.008339657873891263,"241":0.04177388837750671,"242":-0.029174520128384947,"243":-0.01703021162376708,"244":-0.014779351660267694,"245":-0.05392455889607151,"246":0.018613337887333013,"247":-0.09568591734419876,"248":0.025019610153698156,"249":0.02163151520690382,"250":0.056701603159477885,"251":0.04620946831456263,"252":0.06721017849909429,"253":0.05199226867422013,"254":0.04672087188497217}},{"sx":1,"sy":1,"depth":255,"w":{"0":-0.14694757068710493,"1":-0.13251749833533075,"2":-0.06600721026056199,"3":-0.06865857236945608,"4":0.0599263511599613,"5":-0.10600069555527414,"6":0.023792898291797777,"7":-0.02054590985749636,"8":0.03515633203520643,"9":-0.11901541747679226,"10":0.11451101764057547,"11":-0.09919189886391523,"12":-0.04259117956655121,"13":0.0751745228225343,"14":-0.05401777037818674,"15":-0.010317566466833832,"16":0.02433612023896838,"17":-0.09208015580007796,"18":-0.013630480016457384,"19":-0.013940759809372554,"20":0.1760017233272908,"21":0.05664423827360604,"22":-0.09137027857763647,"23":-0.003302658233002141,"24":0.01169959148789876,"25":-0.04630054851358826,"26":-0.045603633495786236,"27":-0.04376964917525369,"28":0.037879490430516215,"29":-0.025892736820688357,"30":-0.028611827732142166,"31":0.033883603537670434,"32":0.026154595713946512,"33":-0.12351893187960242,"34":-0.0741624653356753,"35":0.049826132064714056,"36":-0.05295931716296959,"37":-0.05437085766045155,"38":-0.0173077301073726,"39":-0.08686046435072556,"40":-0.0037063546585569705,"41":-0.02444668766352794,"42":0.013386081916430401,"43":-0.02596950951818757,"44":0.061670814217489364,"45":0.018809052071463314,"46":0.013373180699780008,"47":0.007803981662384365,"48":-0.08181702344400818,"49":-0.05640604348331588,"50":-0.09895804227008984,"51":0.04561800710382743,"52":-0.03772896771630207,"53":-0.04077732963967717,"54":-0.03769904607164701,"55":-0.04153038253251817,"56":-0.027371063580867962,"57":-0.15622692328132048,"58":-0.03343046385114067,"59":-0.06946049484335423,"60":0.08173003362471588,"61":0.06376044065927919,"62":-0.09100944577322828,"63":-0.03650427966389042,"64":0.032715326228257596,"65":-0.015904854858404923,"66":-0.20172869087680761,"67":-0.06006707967894778,"68":0.025119742521505995,"69":-0.03752538700246925,"70":0.10143739350201167,"71":0.03796557021580155,"72":-0.04748655970378022,"73":-0.0620863823216851,"74":-0.0016806865798807908,"75":-0.024292203954728045,"76":0.01771988973026586,"77":-0.009954766575876689,"78":0.10248354441987438,"79":0.03340284097423871,"80":0.008525421276868114,"81":-0.1678334634830988,"82":-0.0640113112990054,"83":-0.03493463929716683,"84":0.006771025330520929,"85":-0.05895535071629883,"86":-0.04110261884273051,"87":0.0745659276880311,"88":-0.08359041374664619,"89":-0.09064402922496463,"90":-0.032477913080343465,"91":-0.04116611754178684,"92":0.03485926799998653,"93":-0.12091081800878921,"94":-0.023931349486959415,"95":0.08175409102918753,"96":0.07182906252358856,"97":-0.08306666225212841,"98":0.05062934908199464,"99":-0.052141784833836836,"100":0.05165643974405024,"101":-0.10247938100193252,"102":0.04226652225997884,"103":-0.14008726457621698,"104":0.0250134969836819,"105":0.009928648822376372,"106":-0.07182581573927294,"107":-0.060738802742810745,"108":0.100546566579264,"109":0.013972852231310876,"110":0.02111139903718775,"111":0.038215933350363905,"112":0.011147824569546513,"113":-0.07468431283543188,"114":0.0508374715332458,"115":-0.02377286149489729,"116":-0.06597757492574108,"117":0.04631240325913738,"118":0.029160094612494556,"119":-0.05507482005180959,"120":0.0033524533219623184,"121":0.023990243740426197,"122":0.013795866928295944,"123":0.03543072117330095,"124":0.00832402308851729,"125":-0.03026811744833491,"126":0.0002055955105518406,"127":-0.0095841195354696,"128":0.0349046461674619,"129":-0.011370688353113848,"130":-0.007470587218792755,"131":-0.017912609168208006,"132":0.023834411303509762,"133":-0.054112460118740734,"134":-0.00902331285259834,"135":0.038502420327200026,"136":-0.06537863918606064,"137":0.0011940443507119176,"138":-0.021183963841864936,"139":0.08922694460507387,"140":-0.05912443758008772,"141":-0.0025183290932626265,"142":0.008551663776497995,"143":0.09584477110411566,"144":0.11173329777397933,"145":0.01809848726734384,"146":-0.06921339286357069,"147":-0.003855430559936111,"148":-0.06648638881476089,"149":0.025100813159081463,"150":0.11362439787517804,"151":0.04777720111500796,"152":-0.018936962273618296,"153":0.03208703622889128,"154":0.01983673978465744,"155":-0.029846027455189914,"156":-0.013606684026163746,"157":0.14691659088797834,"158":0.057831135542021864,"159":0.04433688012303636,"160":-0.11205751824048374,"161":0.0775234558016888,"162":0.15252908816806685,"163":-0.0564965106610769,"164":-0.07537803129032178,"165":0.06639930855457345,"166":0.04712790645388002,"167":0.08832079753091834,"168":0.08689785153467566,"169":0.00856908416165756,"170":-0.005911504321219839,"171":0.13924201584765816,"172":0.09567871793343062,"173":-0.023933575511047207,"174":-0.06052836276969608,"175":-0.0939159973360706,"176":-0.015016925785590612,"177":-0.00787646941552429,"178":-0.020956383018372722,"179":-0.009803748687631545,"180":-0.06489406934830444,"181":-0.03387269573756848,"182":-0.10732799921173118,"183":0.02838117988030187,"184":0.043869447284287336,"185":-0.005861008580930086,"186":0.004407488872936403,"187":-0.002074640168656915,"188":-0.0048547835492385545,"189":-0.006254918379232218,"190":0.045736993970234646,"191":0.039417308676165275,"192":-0.006393799176610827,"193":-0.0204850281862439,"194":-0.09015963767233592,"195":0.012034438885948767,"196":0.010390876440584278,"197":-0.14328378577971865,"198":-0.009966590518497229,"199":0.0451073790459204,"200":0.042653249399230174,"201":-0.004513717860123097,"202":0.10448884392259483,"203":0.09918701978730608,"204":-0.036781022384493475,"205":-0.01685874664275638,"206":0.045878047586687905,"207":0.033055354820152344,"208":-0.0569596939672232,"209":0.014636391966799315,"210":0.041492004374161666,"211":-0.06662947446873146,"212":-0.058763788593702515,"213":0.058480837352033035,"214":-0.021869974859410623,"215":-0.02582069636457285,"216":-0.02070461345195481,"217":0.022508703263393066,"218":-0.04806150748268573,"219":-0.03682474335770696,"220":-0.026654159748165384,"221":-0.010363734434950676,"222":-0.03931796491502841,"223":-0.011106327117000603,"224":0.03137049651169278,"225":-0.0401151440261149,"226":0.017238469583873445,"227":0.006119519676279929,"228":0.05019904446046851,"229":-0.025959262101507986,"230":-0.02052423963311626,"231":-0.0570743933154969,"232":-0.0025335003983435944,"233":-0.043411092171430826,"234":0.043740148283725966,"235":0.13982348153248672,"236":-0.019828863647536207,"237":-0.02672069470108086,"238":0.0815174735882417,"239":0.11624504425643079,"240":0.04327270409593249,"241":0.09072522858613329,"242":0.021972750084129158,"243":0.004239814218389923,"244":-0.005869371018605811,"245":-0.02774298513581347,"246":0.015501814579567456,"247":0.005000408220306846,"248":0.024262904958936096,"249":-0.061644284444022625,"250":-0.06238269971887251,"251":0.11864097658515148,"252":0.06603812436885195,"253":-0.0857023284314387,"254":0.04315327148341356}},{"sx":1,"sy":1,"depth":255,"w":{"0":0.00047335027182504813,"1":-0.013663887411689819,"2":-0.07748243662553372,"3":-0.05258207986958225,"4":0.002184611895054675,"5":-0.08551328031424549,"6":-0.0692704262007812,"7":0.0035792695610025686,"8":0.06268362086367935,"9":0.0001547399396391675,"10":-0.00273041658108078,"11":-0.08194056806482036,"12":-0.061932211800916834,"13":-0.003681564681784572,"14":-0.04822147232352229,"15":-0.08991856113073825,"16":0.031842213488862424,"17":0.02808537165365884,"18":0.019703425830916624,"19":-0.06260785208646033,"20":-0.08321060438363541,"21":-0.08432460933176025,"22":0.09447567538411857,"23":-0.04636671258232321,"24":0.07674191498267019,"25":0.011658422673839791,"26":-0.06227080995499251,"27":-0.07851583729896548,"28":-0.04836211641661584,"29":0.07550237263213526,"30":-0.021084106357368886,"31":0.11132142837790905,"32":0.01790769720663977,"33":-0.044982345367585504,"34":0.06032868836242294,"35":0.05970329588790917,"36":0.03478208130459113,"37":0.0196169014761674,"38":-0.026734861207266494,"39":-0.06897973470194789,"40":0.06662018041900268,"41":-0.03955814420665776,"42":-0.178595117507204,"43":0.002768736158032886,"44":-0.039597460637738176,"45":-0.07528515020323112,"46":0.034285392805389565,"47":-0.07793180117002574,"48":0.0777454237610056,"49":-0.10097445183269423,"50":0.008094489683572572,"51":0.023688354339750414,"52":-0.12696504119232793,"53":0.05487776525305173,"54":0.00464631055261718,"55":-0.07257875467709761,"56":-0.029208029646486947,"57":0.007711921718810424,"58":0.05084064804772531,"59":-0.007500509797577836,"60":0.0793161546150796,"61":-0.0023522621116090626,"62":-0.01573697681195491,"63":0.14689493034622136,"64":0.03697920827452385,"65":-0.045924390687459966,"66":0.03479695093334082,"67":0.1189341255607244,"68":-0.04803867004129969,"69":-0.00043675695262196813,"70":-0.0019317597897253128,"71":-0.07029845217836131,"72":0.02091304602620514,"73":-0.09865142779687672,"74":-0.05836379430360205,"75":0.04161246494752852,"76":0.04400936065121481,"77":0.004353475237971827,"78":-0.03531852357062867,"79":-0.031103627292651724,"80":0.05121853034098712,"81":-0.06433555328318552,"82":0.0990594390864648,"83":-0.02688539593090391,"84":0.045668773610401246,"85":-0.008176331392691688,"86":0.06424898584093092,"87":0.0011645078979349967,"88":-0.004610355784127745,"89":-0.02950977382456538,"90":-0.00877628936050514,"91":-0.0800916123960773,"92":-0.07880129842476312,"93":0.01943974270193404,"94":-0.04908915719085651,"95":0.015907026258123454,"96":0.039875617999858275,"97":0.03181761664168424,"98":0.040077199954565414,"99":-0.026506069771828438,"100":0.0959695820657961,"101":0.03636476590171094,"102":-0.09938550117363927,"103":-0.005754781426809706,"104":0.041371006198418846,"105":-0.02166397340961337,"106":-0.09339513179133292,"107":-0.07356709841034437,"108":-0.07220846808425012,"109":-0.02576509333982278,"110":-0.007829640181679103,"111":-0.037562580560830935,"112":-0.0552958892712421,"113":-0.05196138745169586,"114":0.03336316923735633,"115":-0.05544152551986386,"116":0.037859907004657724,"117":-0.02335211815966079,"118":-0.039063994249890495,"119":0.018680328734581544,"120":0.03317921994764498,"121":-0.003842453100866504,"122":0.03272240732618187,"123":0.0021138550263458977,"124":0.0463353578006051,"125":-0.10538340793490643,"126":0.05096228029170725,"127":-0.008578069678101909,"128":0.013839797904354667,"129":-0.01279017725726147,"130":0.09139183780743153,"131":0.10949131533414651,"132":0.02041648503321518,"133":-0.012912540889573993,"134":0.08262669605368868,"135":-0.0643181907401612,"136":0.045221087436965686,"137":-0.11531781097190925,"138":-0.10026409527704751,"139":-0.007574353082083061,"140":0.05044481793451178,"141":0.0296686548365488,"142":-0.004464493216372969,"143":0.04490655096817791,"144":0.05797780981257637,"145":0.01392937530759554,"146":0.08731842230272713,"147":0.10684837812465385,"148":0.006992779485444474,"149":-0.014003717985897344,"150":0.09621102015310709,"151":0.05823504585877789,"152":0.06587524493011782,"153":0.011707293089881894,"154":-0.10932397936386883,"155":0.004653555876070796,"156":-0.04656750796126509,"157":-0.011836644497276007,"158":-0.18681320578369726,"159":0.06966625340544302,"160":-0.07642886387401837,"161":-0.014943572724128357,"162":0.038687112021923216,"163":-0.09472915519358686,"164":-0.06545382381844667,"165":0.033855623988497736,"166":-0.012430725741022228,"167":-0.06316110739360387,"168":0.052900541174029335,"169":0.012704183198506486,"170":-0.03264324983426216,"171":0.0446377868545793,"172":0.010779123406085608,"173":-0.0019151130939126717,"174":0.05722100144413877,"175":-0.05614044657151925,"176":-0.05410640507868955,"177":0.13004066600152767,"178":-0.08348348635850417,"179":0.11681952542737926,"180":0.10859088147273359,"181":-0.12607268861939713,"182":0.025781820030449865,"183":0.009666512365902366,"184":0.004302400661989815,"185":-0.006022278321030704,"186":-0.035850279789540085,"187":-0.023850637805716196,"188":-0.016246846565301978,"189":0.0378694605058202,"190":-0.08647928431197027,"191":0.08786382728727025,"192":0.041410880556365076,"193":0.0021277111777140275,"194":0.017568584580802307,"195":0.07048096402427559,"196":-0.006915802152818659,"197":-0.06983316802454338,"198":0.02814547759996874,"199":0.16456720259911398,"200":0.06601249852062589,"201":-0.09834275810966775,"202":-0.03226978451886842,"203":0.01673492399257122,"204":-0.01621428983547587,"205":0.01345232788330229,"206":-0.04349340204543961,"207":0.06407628045594659,"208":0.004477866590576793,"209":0.027703501684457517,"210":-0.0632620942081655,"211":0.03630889481053933,"212":0.12601063122419096,"213":0.13320317821589014,"214":0.07228010310525985,"215":0.03895496803461543,"216":-0.1213204921341584,"217":0.08179364205465567,"218":-0.0898494119167002,"219":-0.09875820724074179,"220":0.0036032375878392547,"221":0.10086025591419899,"222":0.013389457195652035,"223":-0.0037045835344783206,"224":-0.10349200904498328,"225":-0.02511930487566094,"226":-0.03435708658599774,"227":0.07198841483012676,"228":0.055597987583233144,"229":0.0033965866978913554,"230":0.016061093962338978,"231":-0.01731472969427478,"232":0.04321669167885852,"233":-0.0316741352913684,"234":-0.06551909259496726,"235":-0.009998952199075482,"236":0.0827103574932138,"237":0.047980978628550476,"238":-0.010887435791629724,"239":0.0020351259485416086,"240":0.058500347736126994,"241":-0.02039018680278109,"242":-0.11646289259454672,"243":0.05884971647060059,"244":-0.017277902363386173,"245":-0.037800408865179706,"246":0.05495527064140102,"247":-0.04931240718356488,"248":0.10577303658291647,"249":0.07758512338130454,"250":0.09852685434762051,"251":0.11163354312631182,"252":0.03331632710187577,"253":0.08989730253275928,"254":0.08524553771728881}},{"sx":1,"sy":1,"depth":255,"w":{"0":0.04989094023068715,"1":0.013816868345583749,"2":-0.08537475546155932,"3":-0.08888048941265453,"4":-0.05734553129216593,"5":0.02867524648363629,"6":-0.03578862848244778,"7":-0.055172036515057685,"8":-0.0026715022174508603,"9":0.07318662354481752,"10":0.091882165058903,"11":0.013608337164498368,"12":-0.042380666387096415,"13":0.06429815054617923,"14":0.12630223869715748,"15":-0.078132964798228,"16":0.13479171356904251,"17":0.027892029935250123,"18":0.014395075093913409,"19":0.03614442848137841,"20":-0.046004063029293045,"21":-0.06266061008181656,"22":0.04379791141321021,"23":-0.04486176637858219,"24":0.08029206452676822,"25":-0.07860168092514995,"26":-0.11634622509146418,"27":-0.004066295436261243,"28":-0.12735683917818058,"29":-0.07351725673818302,"30":0.0010301031149474484,"31":0.0108586973659924,"32":-0.05732966676027763,"33":0.05214576948782017,"34":0.03386556118665504,"35":-0.030027667420682084,"36":0.02916417977683984,"37":0.008357267584415708,"38":-0.0687537254309938,"39":-0.04071327313100101,"40":-0.10925427485201743,"41":0.005455001667456189,"42":0.12619689983745933,"43":-0.09424188926261587,"44":-0.05198158314872147,"45":-0.1307332516827594,"46":-0.018613083790139123,"47":0.02845254677074985,"48":0.09174162689459935,"49":0.07801218821552872,"50":-0.05497510151139512,"51":0.0008506825690796059,"52":0.004654950515386927,"53":-0.03311734136164158,"54":-0.0049905740414635065,"55":0.08525595955686978,"56":-0.04522660701977892,"57":0.050511834499835484,"58":-0.08232299369313575,"59":-0.0018679016884137123,"60":-0.037220297024644515,"61":0.19474415259592176,"62":-0.1263167804075183,"63":0.019924919389604463,"64":-0.04497126078809807,"65":-0.03946527026885334,"66":0.01633587381861612,"67":-0.024673797537690428,"68":0.15001984824932213,"69":0.06108775461896206,"70":0.0072350721655756655,"71":-0.09811216203543693,"72":-0.05059439942649588,"73":-0.06410121534107209,"74":0.09967931792043294,"75":-0.05690776977881459,"76":-0.004652413535272747,"77":-0.09211366937244965,"78":0.0034326133140322066,"79":-0.028859683111591972,"80":0.019372131954229408,"81":0.024082216435735264,"82":0.04172935282328284,"83":0.022675117874872128,"84":-0.01836628423594749,"85":0.055856713778036145,"86":-0.16801815559961825,"87":-0.07893556076491366,"88":-0.03246243592442591,"89":-0.018785779183873075,"90":-0.016400913673337607,"91":0.020974246392345127,"92":-0.05859910850549157,"93":0.04591361632634819,"94":-0.05033978130553392,"95":-0.016435433292918404,"96":-0.03401841152025,"97":0.03095719195943435,"98":0.009759706052996217,"99":0.08305315056948989,"100":-0.011243215747870688,"101":-0.024642343292793863,"102":0.08066281418693397,"103":-0.05404538398912664,"104":0.1071596380113304,"105":0.02086865496813863,"106":-0.06256216996154516,"107":-0.0850954819851266,"108":-0.01421908736427604,"109":-0.022337071576241912,"110":-0.0980994867389422,"111":0.06248559768429599,"112":0.044621438631420755,"113":0.01593426285892476,"114":-0.04335634248252088,"115":0.007691100465520303,"116":-0.06879671073006788,"117":-0.018693541614618347,"118":0.09494087622251375,"119":0.015587498970478801,"120":0.04920331864853868,"121":-0.06662040806976434,"122":-0.03245898655289665,"123":0.003492684552040928,"124":-0.042372825527521675,"125":-0.026110101668116316,"126":-0.020080637298421418,"127":-0.021007700211316566,"128":-0.03446117563197581,"129":-0.021690085625389856,"130":0.01966961988240895,"131":-0.07210507816780357,"132":0.009169853013837504,"133":0.01817797675207342,"134":0.032336612662735645,"135":-0.06982476093593347,"136":0.111807720606165,"137":0.017076474248184315,"138":-0.13752583180421596,"139":0.11654743466800829,"140":-0.010548026989019922,"141":0.07522041349533132,"142":-0.05791078097194508,"143":0.023059132400871228,"144":0.04033228322748035,"145":-0.0463299103611338,"146":-0.06142123621609565,"147":-0.06049362713403369,"148":0.06208182215379347,"149":-0.02166163750610084,"150":-0.08560199522637588,"151":-0.03566996725147288,"152":0.026651797511659078,"153":0.12086732715699915,"154":-0.03023384854007111,"155":-0.04824012267472876,"156":-0.007492769010102461,"157":-0.04006873075506567,"158":-0.06789396266286091,"159":0.0552411025963264,"160":-0.03923569410044666,"161":-0.06981778794930321,"162":-0.06570452404765051,"163":0.09580185445552937,"164":-0.03510196262849289,"165":0.11230426808051387,"166":0.03497787717240946,"167":0.05620535952162483,"168":-0.0888974120285842,"169":0.042437701800341635,"170":-0.012310600198484402,"171":0.0003083555674534161,"172":-0.03967874887983198,"173":0.12505456502772622,"174":-0.04692764057676997,"175":-0.022304333946405453,"176":0.008192285760803478,"177":-0.0487260962387675,"178":-0.04518157708457994,"179":0.08373557177581482,"180":-0.022445806395650133,"181":0.011376520607129317,"182":-0.022886350351155743,"183":0.0004200954917864218,"184":0.09156447765156886,"185":0.016766870089399477,"186":-0.08416712013369321,"187":-0.02227658496540488,"188":-0.030205358750353233,"189":-0.11886142768437283,"190":0.029496580328276612,"191":-0.05544997641166728,"192":0.08020595264631337,"193":0.020273435657337354,"194":-0.040504593781232674,"195":0.06337051553434507,"196":-0.06390826277540998,"197":-0.036525362177487836,"198":-0.001993521861550616,"199":-0.07343258876726237,"200":0.03741717344092568,"201":0.01453177916962633,"202":0.06843535880647202,"203":-0.019724447366305953,"204":-0.005663850677583745,"205":-0.013191367516181827,"206":-0.02134452004936237,"207":-0.04967729044793843,"208":-0.004561555880906476,"209":-0.10132133924025498,"210":0.16190378838339814,"211":-0.010783188344121692,"212":0.01165643397330229,"213":-0.041202677593972586,"214":0.10233081819415729,"215":0.11200030587763132,"216":-0.08267064564688949,"217":0.11727381274389377,"218":-0.05522013428477042,"219":0.10925341386455624,"220":0.0879490097930334,"221":0.03076845181898222,"222":-0.07995837286645464,"223":-0.025089841191726272,"224":0.08450051566078004,"225":-0.040623041550446236,"226":-0.06252010672132477,"227":0.09882264262053872,"228":-0.00685700666038287,"229":-0.09114627959871476,"230":0.05779677242707271,"231":-0.09044833559954721,"232":0.01560755406447549,"233":-0.028281295019000934,"234":-0.059330940160005924,"235":-0.016895483384318264,"236":-0.06988298376504117,"237":0.04787621089169884,"238":-0.021824205292282104,"239":-0.02651718267954773,"240":-0.011971964217828398,"241":-0.011990566880791998,"242":-0.07869822233998561,"243":0.0698772772176507,"244":-0.08448289802154914,"245":0.02230079618673533,"246":-0.04693424700770102,"247":0.018262597044650504,"248":0.033838991206897345,"249":-0.03144669123092071,"250":-0.04326640638970343,"251":0.07576056196382677,"252":-0.014789003701528127,"253":0.014471799305018839,"254":-0.029241918986329274}},{"sx":1,"sy":1,"depth":255,"w":{"0":0.061575041112136686,"1":-0.00472468062222086,"2":0.09756910469372428,"3":0.11377132228038563,"4":0.019266742153000217,"5":0.07060783239195433,"6":0.02815925282632449,"7":0.4252693758830302,"8":0.08036880165950941,"9":0.038408827356583415,"10":0.029049942982796326,"11":0.061855771646131714,"12":0.1846780120610752,"13":0.1019618514044267,"14":0.0478778164425441,"15":-0.11460515410788968,"16":0.008535596173187852,"17":0.24888445696277472,"18":0.03124927969956297,"19":-0.03224435999477251,"20":0.001173959924443867,"21":0.01785683412688744,"22":0.07763343581787933,"23":0.0008718951963794672,"24":-0.03832951402275161,"25":0.10253690775179572,"26":0.01071226649573393,"27":-0.011479112112951415,"28":0.042450583394881364,"29":-0.02974013105421891,"30":0.10237414729267917,"31":-0.04214732342402988,"32":-0.02790326484409445,"33":0.04241332931030264,"34":-0.016298076173162222,"35":-0.09802594021677673,"36":0.07023771046757037,"37":0.10138196984880371,"38":0.018560676063609387,"39":-0.03679555831625927,"40":0.05548883920567174,"41":0.035444532466243565,"42":0.13856853137403538,"43":0.10168866332431974,"44":-0.08350215798997586,"45":0.01971393889998552,"46":0.011271704925550729,"47":-0.056791538679565795,"48":0.05864568203476413,"49":-0.026242632000745753,"50":-0.03511876618140846,"51":-0.04372640559666002,"52":0.226416152547173,"53":-0.04139939993773455,"54":0.06381563428419836,"55":-0.03750037060791942,"56":0.045462409549216695,"57":0.08876999427047591,"58":-0.0904570360115032,"59":0.08764012317482493,"60":0.06552391995726281,"61":0.009660966483026332,"62":0.012631327637794343,"63":0.04090629674146279,"64":0.1212093650522385,"65":0.03148059336796914,"66":-0.013366105785974379,"67":0.18423841864739549,"68":0.05912463140297032,"69":0.06790010813321136,"70":0.05218426923095904,"71":0.13518950743484484,"72":0.2016747440877202,"73":0.16926476055884684,"74":-0.04859100989586411,"75":-0.08547568148648829,"76":-0.03825701463585579,"77":0.15811596776748477,"78":0.1006796979354602,"79":-0.040253507429599246,"80":-0.025944785673743125,"81":0.005025754358524417,"82":0.11477186966447764,"83":-0.035212976290509304,"84":-0.17636239752152,"85":-0.08615737586740238,"86":-0.04795439950150347,"87":-0.0069753146107396375,"88":-0.018751173915417665,"89":0.06783270134241969,"90":-0.035215878883004176,"91":-0.06738708314182353,"92":-0.042684406932364624,"93":0.0019817221890420927,"94":0.050509281861957765,"95":0.05490160844347237,"96":-0.0432292023121621,"97":0.06733299176818083,"98":0.006549258940364353,"99":-0.0007984281777669341,"100":-0.041606408152369566,"101":-0.04790520580537651,"102":0.014243457072661688,"103":0.13299448516840578,"104":-0.02474187621790454,"105":-0.008450286939610807,"106":-0.12179488809747033,"107":0.023552718190573266,"108":0.01555773177006061,"109":-0.01864850065752946,"110":-0.02839625906306193,"111":-0.06410037152537373,"112":-0.06291974403929433,"113":-0.0012283089283304492,"114":0.03325178364740531,"115":-0.014954548572789357,"116":-0.10067978820093786,"117":-0.07376662271873638,"118":-0.01660331693333582,"119":-0.14272477369769415,"120":0.010407000310416628,"121":0.03154542342644921,"122":-0.003228973449389976,"123":0.039802383644344456,"124":-0.015556166231579066,"125":0.0708854129210223,"126":-0.028831231629649,"127":0.057621049528585676,"128":0.001049874073480712,"129":0.07997006509118584,"130":0.07678020273400633,"131":0.028119689168108385,"132":0.17978671346930233,"133":0.053224950267355825,"134":0.0007626764957648563,"135":0.048610768009250654,"136":0.08375802174189129,